{"model_type": "xgboost", "opt_type": 0, "learner": {"attributes": {}, "feature_names": [], "feature_types": [], "gradient_booster": {"model": {"gbtree_model_param": {"num_parallel_tree": "1", "num_trees": "100"}, "iteration_indptr": [0, 1, 2, 3, 4, 5, 6, 7, 8, 9, 10, 11, 12, 13, 14, 15, 16, 17, 18, 19, 20, 21, 22, 23, 24, 25, 26, 27, 28, 29, 30, 31, 32, 33, 34, 35, 36, 37, 38, 39, 40, 41, 42, 43, 44, 45, 46, 47, 48, 49, 50, 51, 52, 53, 54, 55, 56, 57, 58, 59, 60, 61, 62, 63, 64, 65, 66, 67, 68, 69, 70, 71, 72, 73, 74, 75, 76, 77, 78, 79, 80, 81, 82, 83, 84, 85, 86, 87, 88, 89, 90, 91, 92, 93, 94, 95, 96, 97, 98, 99, 100], "tree_info": [0, 0, 0, 0, 0, 0, 0, 0, 0, 0, 0, 0, 0, 0, 0, 0, 0, 0, 0, 0, 0, 0, 0, 0, 0, 0, 0, 0, 0, 0, 0, 0, 0, 0, 0, 0, 0, 0, 0, 0, 0, 0, 0, 0, 0, 0, 0, 0, 0, 0, 0, 0, 0, 0, 0, 0, 0, 0, 0, 0, 0, 0, 0, 0, 0, 0, 0, 0, 0, 0, 0, 0, 0, 0, 0, 0, 0, 0, 0, 0, 0, 0, 0, 0, 0, 0, 0, 0, 0, 0, 0, 0, 0, 0, 0, 0, 0, 0, 0, 0], "trees": [{"base_weights": [1.0239773e-08, -0.019252762, 0.0026681554, -0.036535807, -0.014834407, -0.0020264976, 0.00556595, -0.016019301, -0.031005783, -0.020114657, -0.01166575, -0.004077751, 0.00045558735, 0.0058513014, -0.0032011904, -0.0068965666, -0.010457812, -0.005206653, -0.0072640046, -0.0037856672, -0.008377826, -0.004833689, -0.0028356002, 0.0013467707, -0.0005936693, 0.0040767835, 0.007694114, -0.004408983, -0.0035106663, -0.0001882498, -0.005170398, -0.0019676953, -0.0057424856, 0.00023121196, 0.0034965724, -0.002835135, 0.001187387, 0.0041860826, -0.00092375284, 0.007007661, 0.008662602, -0.002063919, -0.00039251448, -0.00020123467, 9.635262e-05, -0.0017736426, -0.0012535079, 0.00033511745, -0.0006754723, -0.0012863913, -0.00266103, 0.0004389588, -0.0001364724, 0.00066334516, 0.0012904308, -0.00058909046, -0.0023350853, 0.0005500256, -0.0012451478, 0.0009802321, 0.0016265486, 0.0021702216, 0.00072841375, 0.002899026, 0.002243532], "categories": [], "categories_nodes": [], "categories_segments": [], "categories_sizes": [], "default_left": [0, 0, 0, 0, 0, 0, 0, 0, 0, 0, 0, 0, 0, 0, 0, 0, 0, 0, 0, 0, 0, 0, 0, 0, 0, 0, 0, 0, 0, 0, 0, 0, 0, 0, 0, 0, 0, 0, 0, 0, 0, 0, 0, 0, 0, 0, 0, 0, 0, 0, 0, 0, 0, 0, 0, 0, 0, 0, 0, 0, 0, 0, 0, 0, 0], "id": 0, "left_children": [1, 3, 5, 7, 9, 11, 13, -1, 15, 17, 19, 21, 23, 25, -1, -1, -1, -1, -1, -1, 27, 29, 31, 33, 35, 37, 39, 41, -1, 43, 45, 47, 49, 51, 53, 55, 57, 59, -1, 61, 63, -1, -1, -1, -1, -1, -1, -1, -1, -1, -1, -1, -1, -1, -1, -1, -1, -1, -1, -1, -1, -1, -1, -1, -1], "loss_changes": [0.08018731, 0.013966903, 0.018662557, 0.0018877275, 0.0023252405, 0.0026697437, 0.003991328, 0.0, 0.0001563821, 0.00021306053, 0.0002013985, 0.0002557831, 0.00022334856, 0.0026959013, 0.0, 0.0, 0.0, 0.0, 0.0, 0.0, 0.0002782551, 0.00027588336, 0.00026874238, 0.0003085632, 0.00044250587, 0.00034686364, 0.00021054223, 9.058908e-05, 0.0, 3.4110224e-06, 9.67104e-05, 7.870083e-05, 7.569429e-05, 7.3360454e-05, 3.601081e-05, 0.00019603339, 0.00022141282, 0.00046020793, 0.0, 0.00023543369, 0.00012327917, 0.0, 0.0, 0.0, 0.0, 0.0, 0.0, 0.0, 0.0, 0.0, 0.0, 0.0, 0.0, 0.0, 0.0, 0.0, 0.0, 0.0, 0.0, 0.0, 0.0, 0.0, 0.0, 0.0, 0.0], "parents": [2147483647, 0, 0, 1, 1, 2, 2, 3, 3, 4, 4, 5, 5, 6, 6, 8, 8, 9, 9, 10, 10, 11, 11, 12, 12, 13, 13, 20, 20, 21, 21, 22, 22, 23, 23, 24, 24, 25, 25, 26, 26, 27, 27, 29, 29, 30, 30, 31, 31, 32, 32, 33, 33, 34, 34, 35, 35, 36, 36, 37, 37, 39, 39, 40, 40], "right_children": [2, 4, 6, 8, 10, 12, 14, -1, 16, 18, 20, 22, 24, 26, -1, -1, -1, -1, -1, -1, 28, 30, 32, 34, 36, 38, 40, 42, -1, 44, 46, 48, 50, 52, 54, 56, 58, 60, -1, 62, 64, -1, -1, -1, -1, -1, -1, -1, -1, -1, -1, -1, -1, -1, -1, -1, -1, -1, -1, -1, -1, -1, -1, -1, -1], "split_conditions": [0.9614551, 0.93752676, 0.9752888, 0.9031284, 0.95372826, 0.9710085, 0.9902195, -0.016019301, 0.92543447, 0.95076907, 0.95972204, 0.9683744, 0.97374386, 0.98157954, -0.0032011904, -0.0068965666, -0.010457812, -0.005206653, -0.0072640046, -0.0037856672, 0.96033293, 0.96194893, 0.9703935, 0.97290903, 0.9743451, 0.98147064, 0.98500884, 0.9601171, -0.0035106663, 0.9616403, 0.9654775, 0.9685332, 0.97082645, 0.97180766, 0.9732493, 0.97424257, 0.97521245, 0.9789781, -0.00092375284, 0.9848448, 0.98689604, -0.002063919, -0.00039251448, -0.00020123467, 9.635262e-05, -0.0017736426, -0.0012535079, 0.00033511745, -0.0006754723, -0.0012863913, -0.00266103, 0.0004389588, -0.0001364724, 0.00066334516, 0.0012904308, -0.00058909046, -0.0023350853, 0.0005500256, -0.0012451478, 0.0009802321, 0.0016265486, 0.0021702216, 0.00072841375, 0.002899026, 0.002243532], "split_indices": [0, 0, 0, 0, 0, 0, 0, 0, 0, 0, 0, 0, 0, 0, 0, 0, 0, 0, 0, 0, 0, 0, 0, 0, 0, 0, 0, 0, 0, 0, 0, 0, 0, 0, 0, 0, 0, 0, 0, 0, 0, 0, 0, 0, 0, 0, 0, 0, 0, 0, 0, 0, 0, 0, 0, 0, 0, 0, 0, 0, 0, 0, 0, 0, 0], "split_type": [0, 0, 0, 0, 0, 0, 0, 0, 0, 0, 0, 0, 0, 0, 0, 0, 0, 0, 0, 0, 0, 0, 0, 0, 0, 0, 0, 0, 0, 0, 0, 0, 0, 0, 0, 0, 0, 0, 0, 0, 0, 0, 0, 0, 0, 0, 0, 0, 0, 0, 0, 0, 0, 0, 0, 0, 0, 0, 0, 0, 0, 0, 0, 0, 0], "sum_hessian": [1559.0, 189.0, 1370.0, 37.0, 152.0, 523.0, 847.0, 7.0, 30.0, 55.0, 97.0, 286.0, 237.0, 833.0, 14.0, 12.0, 18.0, 36.0, 19.0, 73.0, 24.0, 176.0, 110.0, 128.0, 109.0, 426.0, 407.0, 12.0, 12.0, 12.0, 164.0, 86.0, 24.0, 85.0, 43.0, 48.0, 61.0, 420.0, 6.0, 243.0, 164.0, 6.0, 6.0, 6.0, 6.0, 91.0, 73.0, 7.0, 79.0, 18.0, 6.0, 30.0, 55.0, 18.0, 25.0, 42.0, 6.0, 55.0, 6.0, 243.0, 177.0, 231.0, 12.0, 85.0, 79.0], "tree_param": {"num_deleted": "0", "num_feature": "1", "num_nodes": "65", "size_leaf_vector": "1"}}, {"base_weights": [-3.7083068e-05, -0.013769551, 0.0018660577, -0.026453324, -0.0105293365, -0.0014353083, 0.0039038523, -0.011814239, -0.02226387, -0.013530214, -0.0076219076, -0.002880273, 0.00031317983, 0.0041075656, -0.00768286, -0.004986751, -0.0074855913, -0.0027248783, -0.01424448, -0.00032861403, -0.008136283, -0.003401281, -0.0020235279, 0.0009602313, -0.00044848214, 0.0031203958, 0.0057576275, -0.002891488, -0.0015924951, -0.0046560494, -0.010540557, -0.009188213, -0.00638076, -0.00013986, -0.0036376277, -0.0016998779, -0.00197676, 0.00016536962, 0.002492001, -0.0020442884, 0.0008199532, 0.003205842, -0.0010945201, 0.00539059, 0.0076101436, -0.0024543907, -0.004024872, -0.0024407278, -0.0040766792, -0.0013863558, -0.0025384855, -0.00014949101, 7.1569004e-05, -0.0012473296, -0.000882544, -3.907174e-05, -0.00061354326, 0.0003115106, -9.625522e-05, 0.0004748169, 0.0009181883, -0.00041647846, -0.0017346382, 0.00038796273, -0.00092496874, 0.000645546, 0.0011701426, 0.0017710152, 0.0004513141, 0.0027889507, 0.0013374549], "categories": [], "categories_nodes": [], "categories_segments": [], "categories_sizes": [], "default_left": [0, 0, 0, 0, 0, 0, 0, 0, 0, 0, 0, 0, 0, 0, 0, 0, 0, 0, 0, 0, 0, 0, 0, 0, 0, 0, 0, 0, 0, 0, 0, 0, 0, 0, 0, 0, 0, 0, 0, 0, 0, 0, 0, 0, 0, 0, 0, 0, 0, 0, 0, 0, 0, 0, 0, 0, 0, 0, 0, 0, 0, 0, 0, 0, 0, 0, 0, 0, 0, 0, 0], "id": 1, "left_children": [1, 3, 5, 7, 9, 11, 13, -1, 15, 17, 19, 21, 23, 25, 27, -1, -1, -1, 29, -1, 31, 33, 35, 37, 39, 41, 43, -1, -1, -1, 45, 47, 49, 51, 53, 55, -1, 57, 59, 61, 63, 65, -1, 67, 69, -1, -1, -1, -1, -1, -1, -1, -1, -1, -1, -1, -1, -1, -1, -1, -1, -1, -1, -1, -1, -1, -1, -1, -1, -1, -1], "loss_changes": [0.040796015, 0.007530112, 0.009229013, 0.0011812747, 0.0012317747, 0.00132479, 0.002033149, 0.0, 5.5337325e-05, 0.00010568276, 0.00025965506, 0.00012122607, 0.000117725256, 0.0013405299, 1.8485764e-05, 0.0, 0.0, 0.0, 0.0001293607, 0.0, 7.802714e-05, 0.00013592723, 0.00015282154, 0.00015665122, 0.0002243357, 0.00031476142, 0.00017043948, 0.0, 0.0, 0.0, 1.914287e-05, 9.323214e-05, 7.44015e-05, 1.8822402e-06, 4.7485344e-05, 5.6637684e-05, 0.0, 3.6837573e-05, 1.7905608e-05, 0.000112126916, 0.000118513875, 0.00037086476, 0.0, 0.00051523186, 0.00021900586, 0.0, 0.0, 0.0, 0.0, 0.0, 0.0, 0.0, 0.0, 0.0, 0.0, 0.0, 0.0, 0.0, 0.0, 0.0, 0.0, 0.0, 0.0, 0.0, 0.0, 0.0, 0.0, 0.0, 0.0, 0.0, 0.0], "parents": [2147483647, 0, 0, 1, 1, 2, 2, 3, 3, 4, 4, 5, 5, 6, 6, 8, 8, 9, 9, 10, 10, 11, 11, 12, 12, 13, 13, 14, 14, 18, 18, 20, 20, 21, 21, 22, 22, 23, 23, 24, 24, 25, 25, 26, 26, 30, 30, 31, 31, 32, 32, 33, 33, 34, 34, 35, 35, 37, 37, 38, 38, 39, 39, 40, 40, 41, 41, 43, 43, 44, 44], "right_children": [2, 4, 6, 8, 10, 12, 14, -1, 16, 18, 20, 22, 24, 26, 28, -1, -1, -1, 30, -1, 32, 34, 36, 38, 40, 42, 44, -1, -1, -1, 46, 48, 50, 52, 54, 56, -1, 58, 60, 62, 64, 66, -1, 68, 70, -1, -1, -1, -1, -1, -1, -1, -1, -1, -1, -1, -1, -1, -1, -1, -1, -1, -1, -1, -1, -1, -1, -1, -1, -1, -1], "split_conditions": [0.9614551, 0.93752676, 0.9752888, 0.9031284, 0.9558902, 0.9710085, 0.9902195, -0.011814239, 0.92543447, 0.9451571, 0.95615166, 0.9683744, 0.97374386, 0.9827694, 0.990858, -0.004986751, -0.0074855913, -0.0027248783, 0.95372826, -0.00032861403, 0.95909226, 0.96194893, 0.97082645, 0.97290903, 0.9743451, 0.9827198, 0.9878338, -0.002891488, -0.0015924951, -0.0046560494, 0.95510656, 0.9586935, 0.96033293, 0.9616403, 0.9654775, 0.96884966, -0.00197676, 0.97180766, 0.9732493, 0.97424257, 0.97521245, 0.9785762, -0.0010945201, 0.98689604, 0.98929864, -0.0024543907, -0.004024872, -0.0024407278, -0.0040766792, -0.0013863558, -0.0025384855, -0.00014949101, 7.1569004e-05, -0.0012473296, -0.000882544, -3.907174e-05, -0.00061354326, 0.0003115106, -9.625522e-05, 0.0004748169, 0.0009181883, -0.00041647846, -0.0017346382, 0.00038796273, -0.00092496874, 0.000645546, 0.0011701426, 0.0017710152, 0.0004513141, 0.0027889507, 0.0013374549], "split_indices": [0, 0, 0, 0, 0, 0, 0, 0, 0, 0, 0, 0, 0, 0, 0, 0, 0, 0, 0, 0, 0, 0, 0, 0, 0, 0, 0, 0, 0, 0, 0, 0, 0, 0, 0, 0, 0, 0, 0, 0, 0, 0, 0, 0, 0, 0, 0, 0, 0, 0, 0, 0, 0, 0, 0, 0, 0, 0, 0, 0, 0, 0, 0, 0, 0, 0, 0, 0, 0, 0, 0], "split_type": [0, 0, 0, 0, 0, 0, 0, 0, 0, 0, 0, 0, 0, 0, 0, 0, 0, 0, 0, 0, 0, 0, 0, 0, 0, 0, 0, 0, 0, 0, 0, 0, 0, 0, 0, 0, 0, 0, 0, 0, 0, 0, 0, 0, 0, 0, 0, 0, 0, 0, 0, 0, 0, 0, 0, 0, 0, 0, 0, 0, 0, 0, 0, 0, 0, 0, 0, 0, 0, 0, 0], "sum_hessian": [1559.0, 189.0, 1370.0, 37.0, 152.0, 523.0, 847.0, 7.0, 30.0, 73.0, 79.0, 286.0, 237.0, 833.0, 14.0, 12.0, 18.0, 12.0, 61.0, 6.0, 73.0, 176.0, 110.0, 128.0, 109.0, 523.0, 310.0, 6.0, 8.0, 43.0, 18.0, 43.0, 30.0, 12.0, 164.0, 104.0, 6.0, 85.0, 43.0, 48.0, 61.0, 517.0, 6.0, 262.0, 48.0, 12.0, 6.0, 37.0, 6.0, 18.0, 12.0, 6.0, 6.0, 91.0, 73.0, 19.0, 85.0, 30.0, 55.0, 18.0, 25.0, 42.0, 6.0, 55.0, 6.0, 207.0, 310.0, 231.0, 31.0, 30.0, 18.0], "tree_param": {"num_deleted": "0", "num_feature": "1", "num_nodes": "71", "size_leaf_vector": "1"}}, {"base_weights": [-5.9449216e-05, -0.010691477, 0.0012057666, -0.019156454, -0.008115038, -0.001104711, 0.0027798926, -0.008713002, -0.01598705, -0.009658432, -0.005930642, -0.0021835312, 0.00032792668, 0.002931942, -0.005676925, -0.003605801, -0.0053581134, -0.0019702944, -0.0101507185, -0.00024411679, -0.006528398, -0.0029362324, -0.0016808306, 0.0008943509, -0.00019238237, 0.0019993698, 0.0038596138, -0.0021479642, -0.0011678239, -0.010969907, -0.007719401, -0.005759239, -0.008274524, -0.0042192433, -0.0025995832, -0.001447409, -0.0026447934, 7.110195e-05, 0.0016235055, -0.001474923, 0.0005955786, 0.002121466, -0.0018830621, 0.0035406365, 0.0054024328, -0.0026986892, -0.003866777, -0.0017747105, -0.002989907, -0.002032836, -0.00032967702, -0.0030283954, -0.0015816962, -0.0005986636, -0.0018355155, -3.1171396e-05, -0.0008771932, -0.00057039794, -6.225163e-05, -0.0009784306, -0.00037664958, 0.00061841204, -0.00027777147, 0.00035705086, 0.0006533201, -0.00029444665, -0.0012885946, 0.00049264694, -3.0016658e-05, 0.000492089, 0.00082240993, -6.2020335e-05, -0.0009871143, 0.0011550229, -0.003532219, 0.0019068116, 0.0010523966], "categories": [], "categories_nodes": [], "categories_segments": [], "categories_sizes": [], "default_left": [0, 0, 0, 0, 0, 0, 0, 0, 0, 0, 0, 0, 0, 0, 0, 0, 0, 0, 0, 0, 0, 0, 0, 0, 0, 0, 0, 0, 0, 0, 0, 0, 0, 0, 0, 0, 0, 0, 0, 0, 0, 0, 0, 0, 0, 0, 0, 0, 0, 0, 0, 0, 0, 0, 0, 0, 0, 0, 0, 0, 0, 0, 0, 0, 0, 0, 0, 0, 0, 0, 0, 0, 0, 0, 0, 0, 0], "id": 2, "left_children": [1, 3, 5, 7, 9, 11, 13, -1, 15, 17, 19, 21, 23, 25, 27, -1, -1, -1, 29, -1, 31, 33, 35, 37, 39, 41, 43, -1, -1, 45, 47, 49, 51, 53, 55, 57, 59, 61, 63, 65, 67, 69, 71, 73, 75, -1, -1, -1, -1, -1, -1, -1, -1, -1, -1, -1, -1, -1, -1, -1, -1, -1, -1, -1, -1, -1, -1, -1, -1, -1, -1, -1, -1, -1, -1, -1, -1], "loss_changes": [0.020997712, 0.0034649223, 0.005076662, 0.00072643254, 0.00037762802, 0.000875502, 0.001083904, 0.0, 1.5747733e-05, 4.5927707e-05, 0.00016597286, 0.0001172825, 7.208267e-05, 0.00069822185, 1.18162425e-05, 0.0, 0.0, 0.0, 3.8804952e-05, 0.0, 1.9497471e-05, 4.431815e-05, 4.0273822e-05, 7.011684e-05, 0.0001302342, 0.00019787333, 0.00018165866, 0.0, 0.0, 5.0783623e-05, 1.8045888e-05, 0.00017263496, 1.7814862e-05, 9.3368406e-05, 8.389284e-05, 8.965569e-05, 2.7603091e-05, 0.000113030226, 1.2298478e-05, 6.3976404e-05, 5.8407128e-05, 0.00011391926, 2.9988423e-05, 0.0016613211, 0.00010054861, 0.0, 0.0, 0.0, 0.0, 0.0, 0.0, 0.0, 0.0, 0.0, 0.0, 0.0, 0.0, 0.0, 0.0, 0.0, 0.0, 0.0, 0.0, 0.0, 0.0, 0.0, 0.0, 0.0, 0.0, 0.0, 0.0, 0.0, 0.0, 0.0, 0.0, 0.0, 0.0], "parents": [2147483647, 0, 0, 1, 1, 2, 2, 3, 3, 4, 4, 5, 5, 6, 6, 8, 8, 9, 9, 10, 10, 11, 11, 12, 12, 13, 13, 14, 14, 18, 18, 20, 20, 21, 21, 22, 22, 23, 23, 24, 24, 25, 25, 26, 26, 29, 29, 30, 30, 31, 31, 32, 32, 33, 33, 34, 34, 35, 35, 36, 36, 37, 37, 38, 38, 39, 39, 40, 40, 41, 41, 42, 42, 43, 43, 44, 44], "right_children": [2, 4, 6, 8, 10, 12, 14, -1, 16, 18, 20, 22, 24, 26, 28, -1, -1, -1, 30, -1, 32, 34, 36, 38, 40, 42, 44, -1, -1, 46, 48, 50, 52, 54, 56, 58, 60, 62, 64, 66, 68, 70, 72, 74, 76, -1, -1, -1, -1, -1, -1, -1, -1, -1, -1, -1, -1, -1, -1, -1, -1, -1, -1, -1, -1, -1, -1, -1, -1, -1, -1, -1, -1, -1, -1, -1, -1], "split_conditions": [0.95972204, 0.93752676, 0.9756369, 0.9031284, 0.9558902, 0.9712661, 0.9902195, -0.008713002, 0.92543447, 0.9451571, 0.95615166, 0.9654775, 0.97374386, 0.98157954, 0.990858, -0.003605801, -0.0053581134, -0.0019702944, 0.95372826, -0.00024411679, 0.9586935, 0.9614551, 0.9703935, 0.97260845, 0.9743451, 0.98142827, 0.98730385, -0.0021479642, -0.0011678239, 0.95076907, 0.95510656, 0.95815617, 0.95909226, 0.96033293, 0.96194893, 0.9695138, 0.9710085, 0.97180766, 0.9732493, 0.97424257, 0.9748305, 0.9789781, 0.98147064, 0.98714215, 0.9889685, -0.0026986892, -0.003866777, -0.0017747105, -0.002989907, -0.002032836, -0.00032967702, -0.0030283954, -0.0015816962, -0.0005986636, -0.0018355155, -3.1171396e-05, -0.0008771932, -0.00057039794, -6.225163e-05, -0.0009784306, -0.00037664958, 0.00061841204, -0.00027777147, 0.00035705086, 0.0006533201, -0.00029444665, -0.0012885946, 0.00049264694, -3.0016658e-05, 0.000492089, 0.00082240993, -6.2020335e-05, -0.0009871143, 0.0011550229, -0.003532219, 0.0019068116, 0.0010523966], "split_indices": [0, 0, 0, 0, 0, 0, 0, 0, 0, 0, 0, 0, 0, 0, 0, 0, 0, 0, 0, 0, 0, 0, 0, 0, 0, 0, 0, 0, 0, 0, 0, 0, 0, 0, 0, 0, 0, 0, 0, 0, 0, 0, 0, 0, 0, 0, 0, 0, 0, 0, 0, 0, 0, 0, 0, 0, 0, 0, 0, 0, 0, 0, 0, 0, 0, 0, 0, 0, 0, 0, 0, 0, 0, 0, 0, 0, 0], "split_type": [0, 0, 0, 0, 0, 0, 0, 0, 0, 0, 0, 0, 0, 0, 0, 0, 0, 0, 0, 0, 0, 0, 0, 0, 0, 0, 0, 0, 0, 0, 0, 0, 0, 0, 0, 0, 0, 0, 0, 0, 0, 0, 0, 0, 0, 0, 0, 0, 0, 0, 0, 0, 0, 0, 0, 0, 0, 0, 0, 0, 0, 0, 0, 0, 0, 0, 0, 0, 0, 0, 0, 0, 0, 0, 0, 0, 0], "sum_hessian": [1559.0, 165.0, 1394.0, 37.0, 128.0, 565.0, 829.0, 7.0, 30.0, 73.0, 55.0, 322.0, 243.0, 815.0, 14.0, 12.0, 18.0, 12.0, 61.0, 6.0, 49.0, 127.0, 195.0, 116.0, 127.0, 408.0, 407.0, 6.0, 8.0, 43.0, 18.0, 37.0, 12.0, 24.0, 103.0, 159.0, 36.0, 55.0, 61.0, 48.0, 79.0, 396.0, 12.0, 340.0, 67.0, 24.0, 19.0, 12.0, 6.0, 30.0, 7.0, 6.0, 6.0, 12.0, 12.0, 12.0, 91.0, 116.0, 43.0, 24.0, 12.0, 18.0, 37.0, 36.0, 25.0, 42.0, 6.0, 31.0, 48.0, 225.0, 171.0, 6.0, 6.0, 334.0, 6.0, 43.0, 24.0], "tree_param": {"num_deleted": "0", "num_feature": "1", "num_nodes": "77", "size_leaf_vector": "1"}}, {"base_weights": [-7.09492e-05, -0.007583776, 0.0008594159, -0.0138747115, -0.005756818, -0.00079715275, 0.0019171999, -0.0064258375, -0.011480109, -0.006940642, -0.004251016, -0.0014989297, 0.00019072538, 0.0020248308, -0.0041948915, -0.008690922, -0.0038352853, -0.0014246753, -0.007288251, -0.00018133776, -0.004630924, -0.0018163589, -0.0009835018, 0.00063759496, -0.00028631525, 0.0015195879, 0.002952533, -0.0015956283, -0.0008564016, -0.003172277, -0.001669808, -0.00782816, -0.0056543443, -0.004093655, -0.0054617305, -0.0015931186, -0.0038004203, 0.0004488021, -0.0012494882, -3.8895607e-05, 0.0011256381, -0.0009199811, 0.0004924834, 0.00074525876, 0.0017286887, 0.0026768886, 0.0038252263, -0.0019214753, -0.0027647414, -0.0012832473, -0.0022210786, -0.0014426634, -0.00024313778, -0.0022496658, -0.0011834003, -0.00053115794, 0.00023434254, -0.0019449975, -0.00061903184, -0.00011962908, 0.00062394567, -0.0015961904, -0.00028378266, 0.00030003366, -0.00049422384, 0.0002529452, 0.00046486055, -3.7578436e-06, -0.00034258782, 0.0006183502, -0.00016063721, 0.00044549737, 1.9527924e-05, 0.00054285995, 0.00010786915, 0.00090845715, -0.002623931, 0.0013105632, 0.0006582348], "categories": [], "categories_nodes": [], "categories_segments": [], "categories_sizes": [], "default_left": [0, 0, 0, 0, 0, 0, 0, 0, 0, 0, 0, 0, 0, 0, 0, 0, 0, 0, 0, 0, 0, 0, 0, 0, 0, 0, 0, 0, 0, 0, 0, 0, 0, 0, 0, 0, 0, 0, 0, 0, 0, 0, 0, 0, 0, 0, 0, 0, 0, 0, 0, 0, 0, 0, 0, 0, 0, 0, 0, 0, 0, 0, 0, 0, 0, 0, 0, 0, 0, 0, 0, 0, 0, 0, 0, 0, 0, 0, 0], "id": 3, "left_children": [1, 3, 5, 7, 9, 11, 13, -1, 15, 17, 19, 21, 23, 25, 27, 29, -1, -1, 31, -1, 33, 35, 37, 39, 41, 43, 45, -1, -1, -1, -1, 47, 49, 51, 53, 55, 57, 59, 61, 63, 65, 67, 69, 71, 73, 75, 77, -1, -1, -1, -1, -1, -1, -1, -1, -1, -1, -1, -1, -1, -1, -1, -1, -1, -1, -1, -1, -1, -1, -1, -1, -1, -1, -1, -1, -1, -1, -1, -1], "loss_changes": [0.010910407, 0.0018969681, 0.0024354616, 0.00044063618, 0.00021114666, 0.00037603825, 0.00056635076, 0.0, 1.6577542e-06, 2.1766406e-05, 8.3093066e-05, 5.0078612e-05, 4.8360092e-05, 0.00038642157, 7.4101554e-06, 1.765124e-05, 0.0, 0.0, 1.0431046e-05, 0.0, 2.6379712e-06, 8.031534e-05, 4.7420486e-05, 3.86721e-05, 5.473786e-05, 8.646853e-05, 6.0242368e-05, 0.0, 0.0, 0.0, 0.0, 2.7871458e-05, 1.40920165e-05, 8.533482e-05, 2.9138813e-05, 7.593754e-05, 7.516498e-05, 2.8477234e-05, 0.00012348813, 8.521069e-05, 6.836206e-06, 1.2273245e-05, 8.172938e-05, 5.877079e-05, 4.650152e-05, 0.00093343144, 5.0677336e-05, 0.0, 0.0, 0.0, 0.0, 0.0, 0.0, 0.0, 0.0, 0.0, 0.0, 0.0, 0.0, 0.0, 0.0, 0.0, 0.0, 0.0, 0.0, 0.0, 0.0, 0.0, 0.0, 0.0, 0.0, 0.0, 0.0, 0.0, 0.0, 0.0, 0.0, 0.0, 0.0], "parents": [2147483647, 0, 0, 1, 1, 2, 2, 3, 3, 4, 4, 5, 5, 6, 6, 8, 8, 9, 9, 10, 10, 11, 11, 12, 12, 13, 13, 14, 14, 15, 15, 18, 18, 20, 20, 21, 21, 22, 22, 23, 23, 24, 24, 25, 25, 26, 26, 31, 31, 32, 32, 33, 33, 34, 34, 35, 35, 36, 36, 37, 37, 38, 38, 39, 39, 40, 40, 41, 41, 42, 42, 43, 43, 44, 44, 45, 45, 46, 46], "right_children": [2, 4, 6, 8, 10, 12, 14, -1, 16, 18, 20, 22, 24, 26, 28, 30, -1, -1, 32, -1, 34, 36, 38, 40, 42, 44, 46, -1, -1, -1, -1, 48, 50, 52, 54, 56, 58, 60, 62, 64, 66, 68, 70, 72, 74, 76, 78, -1, -1, -1, -1, -1, -1, -1, -1, -1, -1, -1, -1, -1, -1, -1, -1, -1, -1, -1, -1, -1, -1, -1, -1, -1, -1, -1, -1, -1, -1, -1, -1], "split_conditions": [0.9601171, 0.93752676, 0.9752888, 0.9031284, 0.9558902, 0.9712661, 0.9902195, -0.0064258375, 0.92543447, 0.9451571, 0.95615166, 0.9683744, 0.97374386, 0.9830109, 0.990858, 0.9224292, -0.0038352853, -0.0014246753, 0.95372826, -0.00018133776, 0.9586935, 0.96774405, 0.96884966, 0.97249866, 0.97452855, 0.9771849, 0.98730385, -0.0015956283, -0.0008564016, -0.003172277, -0.001669808, 0.95076907, 0.95510656, 0.95815617, 0.95909226, 0.967093, 0.96789294, 0.96865517, 0.96894646, 0.9721499, 0.9732493, 0.9739162, 0.9748305, 0.9762515, 0.9827198, 0.98714215, 0.98929864, -0.0019214753, -0.0027647414, -0.0012832473, -0.0022210786, -0.0014426634, -0.00024313778, -0.0022496658, -0.0011834003, -0.00053115794, 0.00023434254, -0.0019449975, -0.00061903184, -0.00011962908, 0.00062394567, -0.0015961904, -0.00028378266, 0.00030003366, -0.00049422384, 0.0002529452, 0.00046486055, -3.7578436e-06, -0.00034258782, 0.0006183502, -0.00016063721, 0.00044549737, 1.9527924e-05, 0.00054285995, 0.00010786915, 0.00090845715, -0.002623931, 0.0013105632, 0.0006582348], "split_indices": [0, 0, 0, 0, 0, 0, 0, 0, 0, 0, 0, 0, 0, 0, 0, 0, 0, 0, 0, 0, 0, 0, 0, 0, 0, 0, 0, 0, 0, 0, 0, 0, 0, 0, 0, 0, 0, 0, 0, 0, 0, 0, 0, 0, 0, 0, 0, 0, 0, 0, 0, 0, 0, 0, 0, 0, 0, 0, 0, 0, 0, 0, 0, 0, 0, 0, 0, 0, 0, 0, 0, 0, 0, 0, 0, 0, 0, 0, 0], "split_type": [0, 0, 0, 0, 0, 0, 0, 0, 0, 0, 0, 0, 0, 0, 0, 0, 0, 0, 0, 0, 0, 0, 0, 0, 0, 0, 0, 0, 0, 0, 0, 0, 0, 0, 0, 0, 0, 0, 0, 0, 0, 0, 0, 0, 0, 0, 0, 0, 0, 0, 0, 0, 0, 0, 0, 0, 0, 0, 0, 0, 0, 0, 0, 0, 0, 0, 0, 0, 0, 0, 0, 0, 0, 0, 0, 0, 0, 0, 0], "sum_hessian": [1559.0, 171.0, 1388.0, 37.0, 134.0, 541.0, 847.0, 7.0, 30.0, 73.0, 61.0, 316.0, 225.0, 833.0, 14.0, 12.0, 18.0, 12.0, 61.0, 6.0, 55.0, 194.0, 122.0, 116.0, 109.0, 541.0, 292.0, 6.0, 8.0, 6.0, 6.0, 43.0, 18.0, 37.0, 18.0, 176.0, 18.0, 19.0, 103.0, 49.0, 67.0, 60.0, 49.0, 116.0, 425.0, 225.0, 67.0, 24.0, 19.0, 12.0, 6.0, 30.0, 7.0, 6.0, 12.0, 164.0, 12.0, 6.0, 12.0, 13.0, 6.0, 6.0, 97.0, 30.0, 19.0, 42.0, 25.0, 12.0, 48.0, 19.0, 30.0, 55.0, 61.0, 401.0, 24.0, 219.0, 6.0, 49.0, 18.0], "tree_param": {"num_deleted": "0", "num_feature": "1", "num_nodes": "79", "size_leaf_vector": "1"}}, {"base_weights": [-7.191526e-05, -0.0053002574, 0.000626768, -0.010109755, -0.0040209293, -0.00048298086, 0.0013721249, -0.00473905, -0.0024948006, -0.004988381, -0.0029991406, -0.0009990514, 0.00014855718, 0.0014532461, -0.0030998986, -0.0010301513, -0.005233876, -0.0026691353, -0.0017329371, -0.0013286726, -0.00080896274, 0.0011912647, 6.2522704e-05, 0.0011666626, 0.002351104, -0.0011853271, -0.00062802836, -0.0059693623, -0.0043058298, -0.0030612003, 0.00035542337, -0.0011143794, -0.0012967945, 0.0005145004, -0.0010054603, 0.0002237485, 0.00055449695, -0.0011407939, 0.00021336188, 0.000956579, 0.0015568355, 0.0014761338, 0.002155735, -0.0013680904, -0.0028879524, -0.0005097679, -0.0014590337, -0.00013471332, -0.0009999167, -0.0003946309, 0.00055788417, 1.2132525e-06, 0.000569834, -0.00052578485, -0.00020989151, -1.4585716e-05, -0.0006220413, 0.00024230473, -3.493117e-05, 0.00031473202, -0.00056998595, 0.00058500725, 0.000123798, -0.00039386383, 0.0007220473], "categories": [], "categories_nodes": [], "categories_segments": [], "categories_sizes": [], "default_left": [0, 0, 0, 0, 0, 0, 0, 0, 0, 0, 0, 0, 0, 0, 0, 0, 0, 0, 0, 0, 0, 0, 0, 0, 0, 0, 0, 0, 0, 0, 0, 0, 0, 0, 0, 0, 0, 0, 0, 0, 0, 0, 0, 0, 0, 0, 0, 0, 0, 0, 0, 0, 0, 0, 0, 0, 0, 0, 0, 0, 0, 0, 0, 0, 0], "id": 4, "left_children": [1, 3, 5, 7, 9, 11, 13, -1, -1, 15, 17, 19, 21, 23, 25, -1, 27, 29, -1, 31, 33, 35, 37, 39, 41, -1, -1, 43, 45, 47, -1, 49, -1, 51, 53, -1, -1, 55, 57, 59, 61, -1, 63, -1, -1, -1, -1, -1, -1, -1, -1, -1, -1, -1, -1, -1, -1, -1, -1, -1, -1, -1, -1, -1, -1], "loss_changes": [0.0057019317, 0.0010914877, 0.0011396606, 0.00025627972, 0.00013035326, 0.0001807071, 0.00030343246, 0.0, 0.0, 1.026853e-05, 5.2404997e-05, 1.8035644e-05, 2.235272e-05, 0.00020567933, 4.5791676e-06, 0.0, 1.6616075e-05, 0.000106372725, 0.0, 6.575769e-05, 5.1488518e-05, 4.1823423e-06, 4.2353095e-05, 4.9003575e-05, 8.7276916e-05, 0.0, 0.0, 0.000121000805, 3.6793877e-05, 4.2531232e-05, 0.0, 6.463214e-05, 0.0, 1.8373135e-05, 3.7846752e-05, 0.0, 0.0, 2.6384001e-05, 4.0667364e-05, 0.00010850953, 9.5468946e-05, 0.0, 0.00016254035, 0.0, 0.0, 0.0, 0.0, 0.0, 0.0, 0.0, 0.0, 0.0, 0.0, 0.0, 0.0, 0.0, 0.0, 0.0, 0.0, 0.0, 0.0, 0.0, 0.0, 0.0, 0.0], "parents": [2147483647, 0, 0, 1, 1, 2, 2, 3, 3, 4, 4, 5, 5, 6, 6, 9, 9, 10, 10, 11, 11, 12, 12, 13, 13, 14, 14, 16, 16, 17, 17, 19, 19, 20, 20, 21, 21, 22, 22, 23, 23, 24, 24, 27, 27, 28, 28, 29, 29, 31, 31, 33, 33, 34, 34, 37, 37, 38, 38, 39, 39, 40, 40, 42, 42], "right_children": [2, 4, 6, 8, 10, 12, 14, -1, -1, 16, 18, 20, 22, 24, 26, -1, 28, 30, -1, 32, 34, 36, 38, 40, 42, -1, -1, 44, 46, 48, -1, 50, -1, 52, 54, -1, -1, 56, 58, 60, 62, -1, 64, -1, -1, -1, -1, -1, -1, -1, -1, -1, -1, -1, -1, -1, -1, -1, -1, -1, -1, -1, -1, -1, -1], "split_conditions": [0.96088195, 0.93752676, 0.9758557, 0.9031284, 0.9558902, 0.9712661, 0.9902195, -0.00473905, -0.0024948006, 0.9451571, 0.96033293, 0.9654775, 0.97180766, 0.9845629, 0.990858, -0.0010301513, 0.9514942, 0.9601171, -0.0017329371, 0.96529573, 0.9663832, 0.97148293, 0.97236824, 0.98157954, 0.98473173, -0.0011853271, -0.00062802836, 0.95076907, 0.95255184, 0.95615166, 0.00035542337, 0.9649467, -0.0012967945, 0.96622026, 0.9683744, 0.0002237485, 0.00055449695, 0.9721499, 0.97374386, 0.98142827, 0.98361063, 0.0014761338, 0.984911, -0.0013680904, -0.0028879524, -0.0005097679, -0.0014590337, -0.00013471332, -0.0009999167, -0.0003946309, 0.00055788417, 1.2132525e-06, 0.000569834, -0.00052578485, -0.00020989151, -1.4585716e-05, -0.0006220413, 0.00024230473, -3.493117e-05, 0.00031473202, -0.00056998595, 0.00058500725, 0.000123798, -0.00039386383, 0.0007220473], "split_indices": [0, 0, 0, 0, 0, 0, 0, 0, 0, 0, 0, 0, 0, 0, 0, 0, 0, 0, 0, 0, 0, 0, 0, 0, 0, 0, 0, 0, 0, 0, 0, 0, 0, 0, 0, 0, 0, 0, 0, 0, 0, 0, 0, 0, 0, 0, 0, 0, 0, 0, 0, 0, 0, 0, 0, 0, 0, 0, 0, 0, 0, 0, 0, 0, 0], "split_type": [0, 0, 0, 0, 0, 0, 0, 0, 0, 0, 0, 0, 0, 0, 0, 0, 0, 0, 0, 0, 0, 0, 0, 0, 0, 0, 0, 0, 0, 0, 0, 0, 0, 0, 0, 0, 0, 0, 0, 0, 0, 0, 0, 0, 0, 0, 0, 0, 0, 0, 0, 0, 0, 0, 0, 0, 0, 0, 0, 0, 0, 0, 0, 0, 0], "sum_hessian": [1559.0, 183.0, 1376.0, 37.0, 146.0, 553.0, 823.0, 7.0, 30.0, 73.0, 73.0, 304.0, 249.0, 809.0, 14.0, 12.0, 61.0, 67.0, 6.0, 109.0, 195.0, 18.0, 231.0, 615.0, 194.0, 6.0, 8.0, 31.0, 30.0, 61.0, 6.0, 103.0, 6.0, 25.0, 170.0, 12.0, 6.0, 25.0, 206.0, 402.0, 213.0, 12.0, 182.0, 24.0, 7.0, 6.0, 24.0, 6.0, 55.0, 97.0, 6.0, 19.0, 6.0, 48.0, 122.0, 12.0, 13.0, 73.0, 133.0, 390.0, 12.0, 158.0, 55.0, 12.0, 170.0], "tree_param": {"num_deleted": "0", "num_feature": "1", "num_nodes": "65", "size_leaf_vector": "1"}}, {"base_weights": [-6.155838e-05, -0.0038025668, 0.00043837415, -0.007267185, -0.0028810834, -0.0002714177, 0.0010408707, -0.0034950504, -0.0059016673, -0.0038072893, -0.0022859897, -0.00070359826, 0.00013006096, 0.0011078124, -0.0022908172, -0.0041532014, -0.0067873723, -0.000919874, -0.0049878536, -0.0020962039, -0.0012873225, -0.0006041372, -0.0014076909, 0.00021510228, -0.0011437706, 0.0008582962, 0.0016407879, -0.0008805361, -0.00046054722, -0.0017150249, -0.00059890153, -0.002740799, -0.0015001871, -0.0021298619, -0.003304674, -0.0023304275, 0.000264029, -0.00078444777, 0.000335734, -0.0018482613, -0.00045215624, -1.292781e-06, 0.0004741963, 0.0009767242, -0.002191211, 0.0019422384, 0.001043754, -0.00037869217, -0.0014624834, -0.0006210903, -0.00091698236, -0.00021795713, -0.00074785616, 0.00036152225, -9.373977e-05, -0.00032802945, -0.0010899145, 0.00012605106, -0.00037796667, 8.745457e-05, -0.00023163849, 0.00045207833, 9.273822e-05, 0.00025400176, 0.00067562656, -0.000938417, -4.149761e-05, 0.0005272219, 0.0011392662, -0.0012039475, 0.0005985502], "categories": [], "categories_nodes": [], "categories_segments": [], "categories_sizes": [], "default_left": [0, 0, 0, 0, 0, 0, 0, 0, 0, 0, 0, 0, 0, 0, 0, 0, 0, 0, 0, 0, 0, 0, 0, 0, 0, 0, 0, 0, 0, 0, 0, 0, 0, 0, 0, 0, 0, 0, 0, 0, 0, 0, 0, 0, 0, 0, 0, 0, 0, 0, 0, 0, 0, 0, 0, 0, 0, 0, 0, 0, 0, 0, 0, 0, 0, 0, 0, 0, 0, 0, 0], "id": 5, "left_children": [1, 3, 5, 7, 9, 11, 13, -1, 15, 17, 19, 21, 23, 25, 27, 29, 31, -1, 33, 35, -1, 37, 39, 41, -1, 43, 45, -1, -1, -1, -1, -1, -1, -1, 47, 49, -1, 51, 53, 55, 57, 59, 61, 63, 65, 67, 69, -1, -1, -1, -1, -1, -1, -1, -1, -1, -1, -1, -1, -1, -1, -1, -1, -1, -1, -1, -1, -1, -1, -1, -1], "loss_changes": [0.0029192595, 0.0005664991, 0.00058915257, 0.00015867618, 7.2319875e-05, 0.00010992415, 0.00016869447, 0.0, 1.9818079e-05, 3.369752e-05, 2.60144e-05, 2.0508669e-05, 0.00011112932, 9.580451e-05, 2.797242e-06, 3.2428114e-05, 3.4045952e-05, 0.0, 4.7625275e-05, 6.200335e-05, 0.0, 4.5850436e-05, 1.4740566e-05, 1.8110146e-05, 0.0, 0.00018271393, 3.9727194e-05, 0.0, 0.0, 0.0, 0.0, 0.0, 0.0, 0.0, 3.553822e-05, 8.783769e-06, 0.0, 2.0553343e-05, 2.5170819e-05, 2.9707764e-05, 9.689253e-06, 4.0175193e-05, 2.459353e-05, 7.803939e-05, 3.6108802e-05, 4.5793247e-05, 0.00039290395, 0.0, 0.0, 0.0, 0.0, 0.0, 0.0, 0.0, 0.0, 0.0, 0.0, 0.0, 0.0, 0.0, 0.0, 0.0, 0.0, 0.0, 0.0, 0.0, 0.0, 0.0, 0.0, 0.0, 0.0], "parents": [2147483647, 0, 0, 1, 1, 2, 2, 3, 3, 4, 4, 5, 5, 6, 6, 8, 8, 9, 9, 10, 10, 11, 11, 12, 12, 13, 13, 14, 14, 15, 15, 16, 16, 18, 18, 19, 19, 21, 21, 22, 22, 23, 23, 25, 25, 26, 26, 34, 34, 35, 35, 37, 37, 38, 38, 39, 39, 40, 40, 41, 41, 42, 42, 43, 43, 44, 44, 45, 45, 46, 46], "right_children": [2, 4, 6, 8, 10, 12, 14, -1, 16, 18, 20, 22, 24, 26, 28, 30, 32, -1, 34, 36, -1, 38, 40, 42, -1, 44, 46, -1, -1, -1, -1, -1, -1, -1, 48, 50, -1, 52, 54, 56, 58, 60, 62, 64, 66, 68, 70, -1, -1, -1, -1, -1, -1, -1, -1, -1, -1, -1, -1, -1, -1, -1, -1, -1, -1, -1, -1, -1, -1, -1, -1], "split_conditions": [0.96088195, 0.93752676, 0.9769995, 0.9031284, 0.95372826, 0.9712661, 0.9902195, -0.0034950504, 0.92543447, 0.95076907, 0.96033293, 0.9703935, 0.9769043, 0.9839973, 0.990858, 0.9224292, 0.9317948, -0.000919874, 0.9514942, 0.9601171, -0.0012873225, 0.9695138, 0.9710085, 0.97452855, -0.0011437706, 0.98361063, 0.98689604, -0.0008805361, -0.00046054722, -0.0017150249, -0.00059890153, -0.002740799, -0.0015001871, -0.0021298619, 0.95255184, 0.9586935, 0.000264029, 0.9694084, 0.969973, 0.97082645, 0.9711029, 0.9739162, 0.9748305, 0.9830109, 0.9838853, 0.9867116, 0.98730385, -0.00037869217, -0.0014624834, -0.0006210903, -0.00091698236, -0.00021795713, -0.00074785616, 0.00036152225, -9.373977e-05, -0.00032802945, -0.0010899145, 0.00012605106, -0.00037796667, 8.745457e-05, -0.00023163849, 0.00045207833, 9.273822e-05, 0.00025400176, 0.00067562656, -0.000938417, -4.149761e-05, 0.0005272219, 0.0011392662, -0.0012039475, 0.0005985502], "split_indices": [0, 0, 0, 0, 0, 0, 0, 0, 0, 0, 0, 0, 0, 0, 0, 0, 0, 0, 0, 0, 0, 0, 0, 0, 0, 0, 0, 0, 0, 0, 0, 0, 0, 0, 0, 0, 0, 0, 0, 0, 0, 0, 0, 0, 0, 0, 0, 0, 0, 0, 0, 0, 0, 0, 0, 0, 0, 0, 0, 0, 0, 0, 0, 0, 0, 0, 0, 0, 0, 0, 0], "split_type": [0, 0, 0, 0, 0, 0, 0, 0, 0, 0, 0, 0, 0, 0, 0, 0, 0, 0, 0, 0, 0, 0, 0, 0, 0, 0, 0, 0, 0, 0, 0, 0, 0, 0, 0, 0, 0, 0, 0, 0, 0, 0, 0, 0, 0, 0, 0, 0, 0, 0, 0, 0, 0, 0, 0, 0, 0, 0, 0, 0, 0, 0, 0, 0, 0, 0, 0, 0, 0, 0, 0], "sum_hessian": [1559.0, 183.0, 1376.0, 37.0, 146.0, 632.0, 744.0, 7.0, 30.0, 55.0, 91.0, 304.0, 328.0, 730.0, 14.0, 12.0, 18.0, 36.0, 19.0, 85.0, 6.0, 268.0, 36.0, 322.0, 6.0, 499.0, 231.0, 6.0, 8.0, 6.0, 6.0, 6.0, 12.0, 7.0, 12.0, 79.0, 6.0, 225.0, 43.0, 24.0, 12.0, 176.0, 146.0, 481.0, 18.0, 152.0, 79.0, 6.0, 6.0, 61.0, 18.0, 219.0, 6.0, 18.0, 25.0, 18.0, 6.0, 6.0, 6.0, 128.0, 48.0, 19.0, 127.0, 438.0, 43.0, 12.0, 6.0, 140.0, 12.0, 12.0, 67.0], "tree_param": {"num_deleted": "0", "num_feature": "1", "num_nodes": "71", "size_leaf_vector": "1"}}, {"base_weights": [-5.6505356e-05, -0.0031916923, 0.00025484525, -0.006013515, -0.0025317, -0.0004169821, 0.0006329759, -0.0025776029, -0.004611332, -0.0029579804, -0.00188846, -0.00089494506, -0.00021268957, 0.0006712509, -0.0016929667, -0.003085242, -0.0020360216, -0.0025988026, -0.003690067, -0.0011728406, -0.0020888546, -0.0007874613, -0.00090727635, -0.00016352416, -0.0008006011, 0.00050187047, 0.0011531361, -0.0006541116, -0.00033772987, -0.0012740238, -0.00044489672, -0.00108475, -0.0006513689, -0.0015707754, -0.0024549228, -0.0005744602, -7.897956e-05, -0.0011150428, -0.0016538693, -0.00089882663, 0.0004704748, -0.00021833369, 0.000775396, 0.00056248467, -0.0015854271, 0.0007094914, 0.0010401548, -0.0002813203, -0.0010864225, 5.9631897e-05, -0.00063193636, -0.00021149275, -0.000469183, -4.304438e-05, -0.00035390642, 0.00014127065, 0.00042526136, -0.00089620525, -0.00021257678, -0.00018804714, 0.00034532635], "categories": [], "categories_nodes": [], "categories_segments": [], "categories_sizes": [], "default_left": [0, 0, 0, 0, 0, 0, 0, 0, 0, 0, 0, 0, 0, 0, 0, 0, 0, 0, 0, 0, 0, 0, 0, 0, 0, 0, 0, 0, 0, 0, 0, 0, 0, 0, 0, 0, 0, 0, 0, 0, 0, 0, 0, 0, 0, 0, 0, 0, 0, 0, 0, 0, 0, 0, 0, 0, 0, 0, 0, 0, 0], "id": 6, "left_children": [1, 3, 5, 7, 9, 11, 13, -1, 15, 17, 19, 21, 23, 25, 27, 29, -1, 31, 33, 35, 37, 39, -1, 41, -1, 43, 45, -1, -1, -1, -1, -1, -1, -1, 47, -1, -1, -1, 49, 51, -1, 53, -1, 55, 57, -1, 59, -1, -1, -1, -1, -1, -1, -1, -1, -1, -1, -1, -1, -1, -1], "loss_changes": [0.0015235953, 0.00024737138, 0.00036099862, 5.4382894e-05, 2.6221212e-05, 4.9803508e-05, 8.206064e-05, 0.0, 4.213871e-05, 8.290808e-06, 4.577014e-06, 3.2635056e-05, 4.3033357e-05, 7.24729e-05, 1.6922568e-06, 1.7895407e-05, 0.0, 1.3457087e-05, 2.5333196e-05, 8.269963e-06, 2.0053922e-05, 3.9974235e-05, 0.0, 5.3886033e-05, 0.0, 8.490098e-05, 2.9304298e-05, 0.0, 0.0, 0.0, 0.0, 0.0, 0.0, 0.0, 1.9611194e-05, 0.0, 0.0, 0.0, 2.641153e-05, 1.7077065e-05, 0.0, 2.4872717e-05, 0.0, 4.9919385e-05, 2.1239135e-05, 0.0, 4.0295054e-05, 0.0, 0.0, 0.0, 0.0, 0.0, 0.0, 0.0, 0.0, 0.0, 0.0, 0.0, 0.0, 0.0, 0.0], "parents": [2147483647, 0, 0, 1, 1, 2, 2, 3, 3, 4, 4, 5, 5, 6, 6, 8, 8, 9, 9, 10, 10, 11, 11, 12, 12, 13, 13, 14, 14, 15, 15, 17, 17, 18, 18, 19, 19, 20, 20, 21, 21, 23, 23, 25, 25, 26, 26, 34, 34, 38, 38, 39, 39, 41, 41, 43, 43, 44, 44, 46, 46], "right_children": [2, 4, 6, 8, 10, 12, 14, -1, 16, 18, 20, 22, 24, 26, 28, 30, -1, 32, 34, 36, 38, 40, -1, 42, -1, 44, 46, -1, -1, -1, -1, -1, -1, -1, 48, -1, -1, -1, 50, 52, -1, 54, -1, 56, 58, -1, 60, -1, -1, -1, -1, -1, -1, -1, -1, -1, -1, -1, -1, -1, -1], "split_conditions": [0.95774436, 0.9317948, 0.9743451, 0.9031284, 0.95372826, 0.9654775, 0.9902195, -0.0025776029, 0.92543447, 0.95076907, 0.95510656, 0.96529573, 0.97424257, 0.9839973, 0.990858, 0.9224292, -0.0020360216, 0.93752676, 0.9514942, 0.9538609, 0.9558902, 0.9649467, -0.00090727635, 0.9741453, -0.0008006011, 0.98361063, 0.98432523, -0.0006541116, -0.00033772987, -0.0012740238, -0.00044489672, -0.00108475, -0.0006513689, -0.0015707754, 0.95255184, -0.0005744602, -7.897956e-05, -0.0011150428, 0.95615166, 0.96401906, 0.0004704748, 0.9739162, 0.000775396, 0.9827694, 0.98371863, 0.0007094914, 0.98445404, -0.0002813203, -0.0010864225, 5.9631897e-05, -0.00063193636, -0.00021149275, -0.000469183, -4.304438e-05, -0.00035390642, 0.00014127065, 0.00042526136, -0.00089620525, -0.00021257678, -0.00018804714, 0.00034532635], "split_indices": [0, 0, 0, 0, 0, 0, 0, 0, 0, 0, 0, 0, 0, 0, 0, 0, 0, 0, 0, 0, 0, 0, 0, 0, 0, 0, 0, 0, 0, 0, 0, 0, 0, 0, 0, 0, 0, 0, 0, 0, 0, 0, 0, 0, 0, 0, 0, 0, 0, 0, 0, 0, 0, 0, 0, 0, 0, 0, 0, 0, 0], "split_type": [0, 0, 0, 0, 0, 0, 0, 0, 0, 0, 0, 0, 0, 0, 0, 0, 0, 0, 0, 0, 0, 0, 0, 0, 0, 0, 0, 0, 0, 0, 0, 0, 0, 0, 0, 0, 0, 0, 0, 0, 0, 0, 0, 0, 0, 0, 0, 0, 0, 0, 0, 0, 0, 0, 0, 0, 0, 0, 0, 0, 0], "sum_hessian": [1559.0, 140.0, 1419.0, 25.0, 115.0, 511.0, 908.0, 7.0, 18.0, 67.0, 48.0, 152.0, 359.0, 894.0, 14.0, 12.0, 6.0, 48.0, 19.0, 12.0, 36.0, 146.0, 6.0, 353.0, 6.0, 663.0, 231.0, 6.0, 8.0, 6.0, 6.0, 12.0, 36.0, 7.0, 12.0, 6.0, 6.0, 6.0, 30.0, 140.0, 6.0, 347.0, 6.0, 645.0, 18.0, 18.0, 213.0, 6.0, 6.0, 6.0, 24.0, 110.0, 30.0, 323.0, 24.0, 584.0, 61.0, 6.0, 12.0, 13.0, 200.0], "tree_param": {"num_deleted": "0", "num_feature": "1", "num_nodes": "61", "size_leaf_vector": "1"}}, {"base_weights": [-4.9527946e-05, -0.0020119988, 0.00022247715, -0.0044530127, -0.0016151601, -0.000117180636, 0.00055787445, -0.0019009822, -0.003425551, -0.0020480086, -0.0011296585, -7.3016745e-05, -0.0013096231, 0.00059719157, -0.0012512088, -0.0022918857, -0.0015124696, -0.0007843591, -0.0019208088, -0.0007193251, -0.0015870912, -0.00033406782, 0.00019370709, 0.0005728417, 0.00085275347, -0.0004859141, -0.0002476712, -0.0009464111, -0.0003304967, -0.00030976764, -0.0006228222, -0.0010728627, 0.00030171053, -0.0011238891, -0.0010483323, 0.0003527559, -0.00039253721, 0.00010402085, 0.0010698553, 0.0006137511, -0.0015418713, 4.4304987e-05, -0.00039415841, -8.991141e-05, -0.0006185518, -0.0004832502, -0.000102449485, 6.022787e-05, -0.00017429372, 0.00021321398, 0.00045373762, 0.00016275447, 0.00061111804, -0.00079277164, -6.6271e-05], "categories": [], "categories_nodes": [], "categories_segments": [], "categories_sizes": [], "default_left": [0, 0, 0, 0, 0, 0, 0, 0, 0, 0, 0, 0, 0, 0, 0, 0, 0, 0, 0, 0, 0, 0, 0, 0, 0, 0, 0, 0, 0, 0, 0, 0, 0, 0, 0, 0, 0, 0, 0, 0, 0, 0, 0, 0, 0, 0, 0, 0, 0, 0, 0, 0, 0, 0, 0], "id": 7, "left_children": [1, 3, 5, 7, 9, 11, 13, -1, 15, 17, 19, 21, -1, 23, 25, 27, -1, -1, 29, 31, 33, 35, 37, 39, -1, -1, -1, -1, -1, -1, -1, 41, -1, -1, 43, -1, 45, 47, 49, 51, 53, -1, -1, -1, -1, -1, -1, -1, -1, -1, -1, -1, -1, -1, -1], "loss_changes": [0.00083317875, 0.00017685856, 0.00015625011, 2.8611976e-05, 3.2360986e-05, 0.00012763694, 4.9825496e-05, 0.0, 2.3253684e-05, 1.1752709e-06, 1.38743635e-05, 4.713361e-05, 0.0, 3.5330842e-05, 1.01556e-06, 9.874973e-06, 0.0, 0.0, 8.062023e-06, 2.7912898e-05, 3.9114413e-05, 3.0654744e-05, 2.6212489e-05, 5.8909194e-05, 0.0, 0.0, 0.0, 0.0, 0.0, 0.0, 0.0, 1.1077584e-05, 0.0, 0.0, 2.2902976e-05, 0.0, 1.9969502e-05, 2.0327769e-05, 3.852758e-06, 6.561019e-05, 1.8318118e-05, 0.0, 0.0, 0.0, 0.0, 0.0, 0.0, 0.0, 0.0, 0.0, 0.0, 0.0, 0.0, 0.0, 0.0], "parents": [2147483647, 0, 0, 1, 1, 2, 2, 3, 3, 4, 4, 5, 5, 6, 6, 8, 8, 9, 9, 10, 10, 11, 11, 13, 13, 14, 14, 15, 15, 18, 18, 19, 19, 20, 20, 21, 21, 22, 22, 23, 23, 31, 31, 34, 34, 36, 36, 37, 37, 38, 38, 39, 39, 40, 40], "right_children": [2, 4, 6, 8, 10, 12, 14, -1, 16, 18, 20, 22, -1, 24, 26, 28, -1, -1, 30, 32, 34, 36, 38, 40, -1, -1, -1, -1, -1, -1, -1, 42, -1, -1, 44, -1, 46, 48, 50, 52, 54, -1, -1, -1, -1, -1, -1, -1, -1, -1, -1, -1, -1, -1, -1], "split_conditions": [0.9614551, 0.9317948, 0.9776623, 0.9031284, 0.9558902, 0.9776239, 0.9902195, -0.0019009822, 0.92543447, 0.93752676, 0.9586935, 0.97236824, -0.0013096231, 0.98984027, 0.990858, 0.9224292, -0.0015124696, -0.0007843591, 0.9451571, 0.95815617, 0.95909226, 0.96194893, 0.97722536, 0.98929864, 0.00085275347, -0.0004859141, -0.0002476712, -0.0009464111, -0.0003304967, -0.00030976764, -0.0006228222, 0.95615166, 0.00030171053, -0.0011238891, 0.96033293, 0.0003527559, 0.96248543, 0.9766735, 0.9775065, 0.9878338, 0.9896082, 4.4304987e-05, -0.00039415841, -8.991141e-05, -0.0006185518, -0.0004832502, -0.000102449485, 6.022787e-05, -0.00017429372, 0.00021321398, 0.00045373762, 0.00016275447, 0.00061111804, -0.00079277164, -6.6271e-05], "split_indices": [0, 0, 0, 0, 0, 0, 0, 0, 0, 0, 0, 0, 0, 0, 0, 0, 0, 0, 0, 0, 0, 0, 0, 0, 0, 0, 0, 0, 0, 0, 0, 0, 0, 0, 0, 0, 0, 0, 0, 0, 0, 0, 0, 0, 0, 0, 0, 0, 0, 0, 0, 0, 0, 0, 0], "split_type": [0, 0, 0, 0, 0, 0, 0, 0, 0, 0, 0, 0, 0, 0, 0, 0, 0, 0, 0, 0, 0, 0, 0, 0, 0, 0, 0, 0, 0, 0, 0, 0, 0, 0, 0, 0, 0, 0, 0, 0, 0, 0, 0, 0, 0, 0, 0, 0, 0, 0, 0, 0, 0, 0, 0], "sum_hessian": [1559.0, 189.0, 1370.0, 25.0, 164.0, 681.0, 689.0, 7.0, 18.0, 85.0, 79.0, 675.0, 6.0, 675.0, 14.0, 12.0, 6.0, 12.0, 73.0, 43.0, 36.0, 341.0, 334.0, 669.0, 6.0, 6.0, 8.0, 6.0, 6.0, 12.0, 61.0, 36.0, 7.0, 6.0, 30.0, 12.0, 329.0, 304.0, 30.0, 657.0, 12.0, 6.0, 30.0, 18.0, 12.0, 12.0, 317.0, 267.0, 37.0, 18.0, 12.0, 627.0, 30.0, 6.0, 6.0], "tree_param": {"num_deleted": "0", "num_feature": "1", "num_nodes": "55", "size_leaf_vector": "1"}}, {"base_weights": [-4.059879e-05, -0.0014882435, 0.0001528705, -0.00329751, -0.0011830284, -6.313227e-05, 0.00042860155, -0.0014019773, -0.0025446948, -0.0015524258, -0.0008971367, -0.00026220336, 6.646223e-05, 0.00089440437, 0.00036750856, -0.0017025425, -0.0011235493, -0.0012816081, -0.0021383078, -0.0007581794, -0.00074284937, -0.00017501962, -0.0008889662, 0.00092983874, 2.9942017e-05, 0.0010494536, 0.00027994614, -0.00070305046, -0.000245509, -0.0016121365, -0.000674872, -0.0009949632, -0.001248754, -0.00089484977, 0.00027362365, -0.0003180822, 0.00030775514, -0.0016459593, -0.00045977117, 0.00017786211, 0.0004268391, -0.0007672149, 7.85245e-05, 0.00029439057, 0.0019168046, -0.00063696614, 0.0004458429, -0.0004113951, -0.0006725703, -0.00025992532, -6.682022e-05, -4.8826427e-05, -0.00064690795, -0.00020151437, -0.00047276335, -6.227815e-05, -0.0010383062, 0.00073420495, 1.0443054e-05, -0.00023663725, -0.00068039726, 0.00039193974, -0.00032588746, 5.534979e-06, -0.00043258799, 0.000267962, 8.299458e-06, 0.0003654678, -0.00045145844, 0.00071501505, 0.00044900464, -8.661989e-05, -0.0011335508, 0.0011227932, 0.00011771415], "categories": [], "categories_nodes": [], "categories_segments": [], "categories_sizes": [], "default_left": [0, 0, 0, 0, 0, 0, 0, 0, 0, 0, 0, 0, 0, 0, 0, 0, 0, 0, 0, 0, 0, 0, 0, 0, 0, 0, 0, 0, 0, 0, 0, 0, 0, 0, 0, 0, 0, 0, 0, 0, 0, 0, 0, 0, 0, 0, 0, 0, 0, 0, 0, 0, 0, 0, 0, 0, 0, 0, 0, 0, 0, 0, 0, 0, 0, 0, 0, 0, 0, 0, 0, 0, 0, 0, 0], "id": 8, "left_children": [1, 3, 5, 7, 9, 11, 13, -1, 15, 17, 19, 21, 23, -1, 25, 27, -1, 29, 31, 33, -1, 35, 37, 39, 41, 43, 45, -1, -1, 47, 49, -1, 51, 53, -1, 55, 57, 59, 61, -1, -1, 63, 65, 67, 69, 71, 73, -1, -1, -1, -1, -1, -1, -1, -1, -1, -1, -1, -1, -1, -1, -1, -1, -1, -1, -1, -1, -1, -1, -1, -1, -1, -1, -1, -1], "loss_changes": [0.00043714416, 9.7706565e-05, 8.203933e-05, 1.5035766e-05, 1.539888e-05, 1.9959682e-05, 9.325704e-05, 0.0, 1.2832301e-05, 8.048897e-06, 1.830903e-05, 1.6510694e-05, 1.4760053e-05, 0.0, 3.5056153e-05, 5.4495576e-06, 0.0, 8.738643e-06, 1.6820544e-05, 2.0447798e-05, 0.0, 1.8676914e-05, 1.126445e-05, 2.3125467e-06, 1.7526512e-05, 4.3314336e-05, 8.02953e-05, 0.0, 0.0, 1.6270933e-06, 1.4525158e-06, 0.0, 1.2462611e-05, 1.1098367e-05, 0.0, 7.15112e-05, 3.612228e-05, 5.1424468e-06, 2.9083785e-05, 0.0, 0.0, 1.3809813e-05, 1.7626362e-05, 6.333513e-05, 2.509456e-06, 8.7521985e-05, 7.714111e-05, 0.0, 0.0, 0.0, 0.0, 0.0, 0.0, 0.0, 0.0, 0.0, 0.0, 0.0, 0.0, 0.0, 0.0, 0.0, 0.0, 0.0, 0.0, 0.0, 0.0, 0.0, 0.0, 0.0, 0.0, 0.0, 0.0, 0.0, 0.0], "parents": [2147483647, 0, 0, 1, 1, 2, 2, 3, 3, 4, 4, 5, 5, 6, 6, 8, 8, 9, 9, 10, 10, 11, 11, 12, 12, 14, 14, 15, 15, 17, 17, 18, 18, 19, 19, 21, 21, 22, 22, 23, 23, 24, 24, 25, 25, 26, 26, 29, 29, 30, 30, 32, 32, 33, 33, 35, 35, 36, 36, 37, 37, 38, 38, 41, 41, 42, 42, 43, 43, 44, 44, 45, 45, 46, 46], "right_children": [2, 4, 6, 8, 10, 12, 14, -1, 16, 18, 20, 22, 24, -1, 26, 28, -1, 30, 32, 34, -1, 36, 38, 40, 42, 44, 46, -1, -1, 48, 50, -1, 52, 54, -1, 56, 58, 60, 62, -1, -1, 64, 66, 68, 70, 72, 74, -1, -1, -1, -1, -1, -1, -1, -1, -1, -1, -1, -1, -1, -1, -1, -1, -1, -1, -1, -1, -1, -1, -1, -1, -1, -1, -1, -1], "split_conditions": [0.96088195, 0.9317948, 0.9789781, 0.9031284, 0.95372826, 0.9712661, 0.97920984, -0.0014019773, 0.92543447, 0.95076907, 0.96033293, 0.9703935, 0.97180766, 0.00089440437, 0.98011065, 0.9224292, -0.0011235493, 0.94689286, 0.9514942, 0.9601171, -0.00074284937, 0.96894646, 0.9706625, 0.97148293, 0.97236824, 0.97964716, 0.9811046, -0.00070305046, -0.000245509, 0.9451571, 0.94923985, -0.0009949632, 0.95255184, 0.9586935, 0.00027362365, 0.96884966, 0.969187, 0.97047865, 0.97082645, 0.00017786211, 0.0004268391, 0.9721499, 0.9727639, 0.97945184, 0.97976756, 0.9809643, 0.98134655, -0.0004113951, -0.0006725703, -0.00025992532, -6.682022e-05, -4.8826427e-05, -0.00064690795, -0.00020151437, -0.00047276335, -6.227815e-05, -0.0010383062, 0.00073420495, 1.0443054e-05, -0.00023663725, -0.00068039726, 0.00039193974, -0.00032588746, 5.534979e-06, -0.00043258799, 0.000267962, 8.299458e-06, 0.0003654678, -0.00045145844, 0.00071501505, 0.00044900464, -8.661989e-05, -0.0011335508, 0.0011227932, 0.00011771415], "split_indices": [0, 0, 0, 0, 0, 0, 0, 0, 0, 0, 0, 0, 0, 0, 0, 0, 0, 0, 0, 0, 0, 0, 0, 0, 0, 0, 0, 0, 0, 0, 0, 0, 0, 0, 0, 0, 0, 0, 0, 0, 0, 0, 0, 0, 0, 0, 0, 0, 0, 0, 0, 0, 0, 0, 0, 0, 0, 0, 0, 0, 0, 0, 0, 0, 0, 0, 0, 0, 0, 0, 0, 0, 0, 0, 0], "split_type": [0, 0, 0, 0, 0, 0, 0, 0, 0, 0, 0, 0, 0, 0, 0, 0, 0, 0, 0, 0, 0, 0, 0, 0, 0, 0, 0, 0, 0, 0, 0, 0, 0, 0, 0, 0, 0, 0, 0, 0, 0, 0, 0, 0, 0, 0, 0, 0, 0, 0, 0, 0, 0, 0, 0, 0, 0, 0, 0, 0, 0, 0, 0, 0, 0, 0, 0, 0, 0, 0, 0, 0, 0, 0, 0], "sum_hessian": [1559.0, 183.0, 1376.0, 25.0, 158.0, 772.0, 604.0, 7.0, 18.0, 67.0, 91.0, 304.0, 468.0, 13.0, 591.0, 12.0, 6.0, 48.0, 19.0, 85.0, 6.0, 268.0, 36.0, 18.0, 450.0, 66.0, 525.0, 6.0, 6.0, 30.0, 18.0, 7.0, 12.0, 79.0, 6.0, 207.0, 61.0, 12.0, 24.0, 12.0, 6.0, 25.0, 425.0, 36.0, 30.0, 80.0, 445.0, 24.0, 6.0, 12.0, 6.0, 6.0, 6.0, 61.0, 18.0, 201.0, 6.0, 6.0, 55.0, 6.0, 6.0, 6.0, 18.0, 12.0, 13.0, 24.0, 401.0, 24.0, 12.0, 12.0, 18.0, 73.0, 7.0, 6.0, 439.0], "tree_param": {"num_deleted": "0", "num_feature": "1", "num_nodes": "75", "size_leaf_vector": "1"}}, {"base_weights": [-3.257012e-05, -0.0012590281, 8.923491e-05, -0.002187608, -0.00090763316, -0.00011114309, 0.00027093463, -0.0010339626, -0.001792154, -0.000110062734, -0.00097417895, -8.276968e-05, -0.0008433018, 0.00029735413, -0.00031039122, -0.001264751, -0.0020586848, -0.0011951666, -0.0007558599, -0.00031044183, 3.3043074e-05, 0.0002804016, 0.00060320075, -0.0005222695, -0.00018237745, -0.00083463703, -0.00045323418, -0.00083841087, -0.0015813529, -0.0001103282, -0.0009622397, -0.00020609633, -0.0010636569, 0.0006054059, -3.2876453e-06, 0.00030798547, -0.0012540359, -0.0004996215, -0.0001468806, -0.0007337809, -0.00027829775, -0.00021476831, 0.00015329974, -0.0006163512, -0.00020536782, -8.717121e-05, 0.0007217544, -0.0005103682, 7.2698626e-06, 7.8320714e-05, 0.00039951762, -0.00061917905, -7.949812e-05], "categories": [], "categories_nodes": [], "categories_segments": [], "categories_sizes": [], "default_left": [0, 0, 0, 0, 0, 0, 0, 0, 0, 0, 0, 0, 0, 0, 0, 0, 0, 0, 0, 0, 0, 0, 0, 0, 0, 0, 0, 0, 0, 0, 0, 0, 0, 0, 0, 0, 0, 0, 0, 0, 0, 0, 0, 0, 0, 0, 0, 0, 0, 0, 0, 0, 0], "id": 9, "left_children": [1, 3, 5, 7, 9, 11, 13, -1, 15, -1, 17, 19, -1, 21, -1, 23, 25, 27, 29, 31, 33, 35, -1, -1, -1, -1, -1, 37, 39, 41, 43, 45, -1, -1, 47, 49, 51, -1, -1, -1, -1, -1, -1, -1, -1, -1, -1, -1, -1, -1, -1, -1, -1], "loss_changes": [0.00023315877, 4.4022527e-05, 5.1730363e-05, 1.2741584e-05, 3.385052e-06, 5.1551855e-05, 2.6004593e-05, 0.0, 1.7539205e-06, 0.0, 3.5352423e-06, 1.7676373e-05, 0.0, 2.066807e-05, 0.0, 3.007366e-06, 3.327943e-06, 4.736241e-06, 6.4218475e-06, 7.555922e-05, 3.2098087e-05, 3.107236e-05, 0.0, 0.0, 0.0, 0.0, 0.0, 6.396187e-06, 9.034458e-06, 5.2571336e-06, 9.815682e-06, 4.9240374e-05, 0.0, 0.0, 2.0508169e-05, 3.389787e-05, 9.866322e-06, 0.0, 0.0, 0.0, 0.0, 0.0, 0.0, 0.0, 0.0, 0.0, 0.0, 0.0, 0.0, 0.0, 0.0, 0.0, 0.0], "parents": [2147483647, 0, 0, 1, 1, 2, 2, 3, 3, 4, 4, 5, 5, 6, 6, 8, 8, 10, 10, 11, 11, 13, 13, 15, 15, 16, 16, 17, 17, 18, 18, 19, 19, 20, 20, 21, 21, 27, 27, 28, 28, 29, 29, 30, 30, 31, 31, 34, 34, 35, 35, 36, 36], "right_children": [2, 4, 6, 8, 10, 12, 14, -1, 16, -1, 18, 20, -1, 22, -1, 24, 26, 28, 30, 32, 34, 36, -1, -1, -1, -1, -1, 38, 40, 42, 44, 46, -1, -1, 48, 50, 52, -1, -1, -1, -1, -1, -1, -1, -1, -1, -1, -1, -1, -1, -1, -1, -1], "split_conditions": [0.95774436, 0.93752676, 0.9769995, 0.9031284, 0.9451571, 0.9769043, 0.9902195, -0.0010339626, 0.92543447, -0.000110062734, 0.95372826, 0.9683744, -0.0008433018, 0.98984027, -0.00031039122, 0.9224292, 0.9317948, 0.95076907, 0.95510656, 0.96802336, 0.9685332, 0.98929864, 0.00060320075, -0.0005222695, -0.00018237745, -0.00083463703, -0.00045323418, 0.94689286, 0.9514942, 0.9538609, 0.9558902, 0.96789294, -0.0010636569, 0.0006054059, 0.96865517, 0.9878338, 0.9896082, -0.0004996215, -0.0001468806, -0.0007337809, -0.00027829775, -0.00021476831, 0.00015329974, -0.0006163512, -0.00020536782, -8.717121e-05, 0.0007217544, -0.0005103682, 7.2698626e-06, 7.8320714e-05, 0.00039951762, -0.00061917905, -7.949812e-05], "split_indices": [0, 0, 0, 0, 0, 0, 0, 0, 0, 0, 0, 0, 0, 0, 0, 0, 0, 0, 0, 0, 0, 0, 0, 0, 0, 0, 0, 0, 0, 0, 0, 0, 0, 0, 0, 0, 0, 0, 0, 0, 0, 0, 0, 0, 0, 0, 0, 0, 0, 0, 0, 0, 0], "split_type": [0, 0, 0, 0, 0, 0, 0, 0, 0, 0, 0, 0, 0, 0, 0, 0, 0, 0, 0, 0, 0, 0, 0, 0, 0, 0, 0, 0, 0, 0, 0, 0, 0, 0, 0, 0, 0, 0, 0, 0, 0, 0, 0, 0, 0, 0, 0, 0, 0, 0, 0, 0, 0], "sum_hessian": [1559.0, 140.0, 1419.0, 37.0, 103.0, 675.0, 744.0, 7.0, 30.0, 12.0, 91.0, 669.0, 6.0, 730.0, 14.0, 12.0, 18.0, 43.0, 48.0, 225.0, 444.0, 724.0, 6.0, 6.0, 6.0, 6.0, 12.0, 24.0, 19.0, 12.0, 36.0, 219.0, 6.0, 7.0, 437.0, 712.0, 12.0, 6.0, 18.0, 7.0, 12.0, 6.0, 6.0, 6.0, 30.0, 213.0, 6.0, 6.0, 431.0, 682.0, 30.0, 6.0, 6.0], "tree_param": {"num_deleted": "0", "num_feature": "1", "num_nodes": "53", "size_leaf_vector": "1"}}, {"base_weights": [-2.7146669e-05, -0.00080476893, 7.678191e-05, -0.0016109692, -0.00059088884, -8.005528e-05, 0.00018213509, -0.0007625476, -0.0003956345, -0.00052842184, -0.0005294221, 0.0006155309, -0.000104562896, 0.00126849, 0.00014655641, -0.0006176584, 0.00039772803, -4.9339873e-05, 0.00029645427, -0.00030804, -8.148342e-05, 0.00025066675, 0.0006972697, -0.00069532474, 0.00018030382, -0.0005120513, -0.0015206108, -4.0744035e-06, 0.00022566575, 0.00060480536, -0.000108501816, -5.568777e-07, -0.00086168287, 0.0006963883, 0.00016042539, -0.0001982498, 0.00018892715, -0.00069090386, -0.0001562936, 1.0575567e-06, 0.00025867354, -0.0008610913, -2.0862499e-05, -0.0003661463, -0.00013097846, -0.00029936936, 5.6925357e-05], "categories": [], "categories_nodes": [], "categories_segments": [], "categories_sizes": [], "default_left": [0, 0, 0, 0, 0, 0, 0, 0, 0, 0, 0, 0, 0, 0, 0, 0, 0, 0, 0, 0, 0, 0, 0, 0, 0, 0, 0, 0, 0, 0, 0, 0, 0, 0, 0, 0, 0, 0, 0, 0, 0, 0, 0, 0, 0, 0, 0], "id": 10, "left_children": [1, 3, 5, 7, 9, 11, 13, -1, -1, 15, -1, 17, 19, 21, 23, 25, 27, -1, -1, -1, 29, -1, -1, 31, 33, 35, 37, -1, -1, 39, 41, -1, 43, -1, 45, -1, -1, -1, -1, -1, -1, -1, -1, -1, -1, -1, -1], "loss_changes": [0.0001261366, 3.0775256e-05, 2.276716e-05, 6.983304e-06, 9.846539e-06, 9.508487e-06, 3.1662574e-05, 0.0, 0.0, 1.1898817e-05, 0.0, 5.685175e-06, 1.1324961e-05, 9.941708e-06, 2.2826005e-05, 1.1522581e-05, 1.9056877e-06, 0.0, 0.0, 0.0, 9.781854e-06, 0.0, 0.0, 3.574687e-06, 3.2355874e-05, 2.0292107e-05, 8.967665e-06, 0.0, 0.0, 3.0928286e-06, 5.4138523e-05, 0.0, 3.2802327e-06, 0.0, 2.6107507e-05, 0.0, 0.0, 0.0, 0.0, 0.0, 0.0, 0.0, 0.0, 0.0, 0.0, 0.0, 0.0], "parents": [2147483647, 0, 0, 1, 1, 2, 2, 3, 3, 4, 4, 5, 5, 6, 6, 9, 9, 11, 11, 12, 12, 13, 13, 14, 14, 15, 15, 16, 16, 20, 20, 23, 23, 24, 24, 25, 25, 26, 26, 29, 29, 30, 30, 32, 32, 34, 34], "right_children": [2, 4, 6, 8, 10, 12, 14, -1, -1, 16, -1, 18, 20, 22, 24, 26, 28, -1, -1, -1, 30, -1, -1, 32, 34, 36, 38, -1, -1, 40, 42, -1, 44, -1, 46, -1, -1, -1, -1, -1, -1, -1, -1, -1, -1, -1, -1], "split_conditions": [0.96088195, 0.93752676, 0.9758557, 0.9031284, 0.96033293, 0.96194893, 0.9761522, -0.0007625476, -0.0003956345, 0.95972204, -0.0005294221, 0.9614551, 0.96248543, 0.97610986, 0.9766386, 0.9586935, 0.9601171, -4.9339873e-05, 0.00029645427, -0.00030804, 0.96339023, 0.00025066675, 0.0006972697, 0.9762515, 0.9766735, 0.95774436, 0.95909226, -4.0744035e-06, 0.00022566575, 0.96287626, 0.96356374, -5.568777e-07, 0.97642964, 0.0006963883, 0.9769995, -0.0001982498, 0.00018892715, -0.00069090386, -0.0001562936, 1.0575567e-06, 0.00025867354, -0.0008610913, -2.0862499e-05, -0.0003661463, -0.00013097846, -0.00029936936, 5.6925357e-05], "split_indices": [0, 0, 0, 0, 0, 0, 0, 0, 0, 0, 0, 0, 0, 0, 0, 0, 0, 0, 0, 0, 0, 0, 0, 0, 0, 0, 0, 0, 0, 0, 0, 0, 0, 0, 0, 0, 0, 0, 0, 0, 0, 0, 0, 0, 0, 0, 0], "split_type": [0, 0, 0, 0, 0, 0, 0, 0, 0, 0, 0, 0, 0, 0, 0, 0, 0, 0, 0, 0, 0, 0, 0, 0, 0, 0, 0, 0, 0, 0, 0, 0, 0, 0, 0, 0, 0, 0, 0, 0, 0, 0, 0, 0, 0, 0, 0], "sum_hessian": [1559.0, 183.0, 1376.0, 37.0, 146.0, 553.0, 823.0, 7.0, 30.0, 140.0, 6.0, 18.0, 535.0, 25.0, 798.0, 128.0, 12.0, 6.0, 12.0, 12.0, 523.0, 19.0, 6.0, 30.0, 768.0, 116.0, 12.0, 6.0, 6.0, 19.0, 504.0, 6.0, 24.0, 6.0, 762.0, 103.0, 13.0, 6.0, 6.0, 6.0, 13.0, 6.0, 498.0, 12.0, 12.0, 18.0, 744.0], "tree_param": {"num_deleted": "0", "num_feature": "1", "num_nodes": "47", "size_leaf_vector": "1"}}, {"base_weights": [-2.0348758e-05, -0.0005759645, 5.3909524e-05, -0.0013290781, -0.0004491915, 8.288474e-05, -0.00037145344, -0.0005623855, -0.0010294255, -0.00040682819, -0.00039328847, 2.0937521e-05, 0.0010195747, -0.0020210012, 0.00017644865, -0.0005743091, -0.0005182743, -0.0004686916, 0.00029544646, 5.6243636e-05, -0.0016562343, 0.0014462864, 2.2957325e-05, 0.0006572262, -4.0763218e-05, -0.00028623515, -3.373708e-05, -0.00039845382, -0.0011296135, -3.0321735e-06, 0.00016763806, 1.9581477e-05, 0.0006926913, -0.0017519168, -8.333671e-06, 0.0010754629, 0.002590129, -0.001126704, 0.0014138786, -0.00053431647, 0.00013637888, -0.00014270203, 0.00024868548, -0.00051324966, -0.00011610645, 9.63266e-06, -0.00021051677, 0.0007264976, 0.00014848878, 0.0011652615, 0.00027781047, 0.00093699526, 0.000115395516, 0.00027364647, -0.00014512814], "categories": [], "categories_nodes": [], "categories_segments": [], "categories_sizes": [], "default_left": [0, 0, 0, 0, 0, 0, 0, 0, 0, 0, 0, 0, 0, 0, 0, 0, 0, 0, 0, 0, 0, 0, 0, 0, 0, 0, 0, 0, 0, 0, 0, 0, 0, 0, 0, 0, 0, 0, 0, 0, 0, 0, 0, 0, 0, 0, 0, 0, 0, 0, 0, 0, 0, 0, 0], "id": 11, "left_children": [1, 3, 5, 7, 9, 11, 13, -1, 15, 17, -1, 19, 21, -1, 23, 25, -1, 27, 29, 31, 33, 35, 37, -1, 39, -1, -1, 41, 43, -1, -1, 45, -1, -1, -1, 47, 49, -1, 51, -1, 53, -1, -1, -1, -1, -1, -1, -1, -1, -1, -1, -1, -1, -1, -1], "loss_changes": [6.43952e-05, 1.6970305e-05, 1.7002292e-05, 2.320503e-06, 5.2713403e-06, 7.483134e-05, 0.00030809004, 0.0, 5.0449325e-06, 6.7855763e-06, 0.0, 7.180182e-05, 3.398826e-05, 0.0, 3.596684e-05, 2.1730998e-06, 0.0, 6.0953607e-06, 1.0517147e-06, 9.798893e-05, 0.00017015339, 2.0967593e-05, 0.00013670477, 0.0, 2.3363818e-05, 0.0, 0.0, 1.26209e-05, 4.948779e-06, 0.0, 0.0, 1.0585682e-05, 0.0, 0.0, 0.0, 3.3185923e-05, 2.439812e-05, 0.0, 3.222722e-05, 0.0, 3.363642e-05, 0.0, 0.0, 0.0, 0.0, 0.0, 0.0, 0.0, 0.0, 0.0, 0.0, 0.0, 0.0, 0.0, 0.0], "parents": [2147483647, 0, 0, 1, 1, 2, 2, 3, 3, 4, 4, 5, 5, 6, 6, 8, 8, 9, 9, 11, 11, 12, 12, 14, 14, 15, 15, 17, 17, 18, 18, 19, 19, 20, 20, 21, 21, 22, 22, 24, 24, 27, 27, 28, 28, 31, 31, 35, 35, 36, 36, 38, 38, 40, 40], "right_children": [2, 4, 6, 8, 10, 12, 14, -1, 16, 18, -1, 20, 22, -1, 24, 26, -1, 28, 30, 32, 34, 36, 38, -1, 40, -1, -1, 42, 44, -1, -1, 46, -1, -1, -1, 48, 50, -1, 52, -1, 54, -1, -1, -1, -1, -1, -1, -1, -1, -1, -1, -1, -1, -1, -1], "split_conditions": [0.96088195, 0.9317948, 0.98714215, 0.9031284, 0.96033293, 0.98522216, 0.98730385, -0.0005623855, 0.92543447, 0.95972204, -0.00039328847, 0.9848448, 0.98657835, -0.0020210012, 0.987484, 0.9224292, -0.0005182743, 0.9586935, 0.9601171, 0.9845629, 0.984911, 0.98626, 0.9867116, 0.0006572262, 0.9877078, -0.00028623515, -3.373708e-05, 0.95815617, 0.95909226, -3.0321735e-06, 0.00016763806, 0.98432523, 0.0006926913, -0.0017519168, -8.333671e-06, 0.98542887, 0.98641354, -0.001126704, 0.9868234, -0.00053431647, 0.9889685, -0.00014270203, 0.00024868548, -0.00051324966, -0.00011610645, 9.63266e-06, -0.00021051677, 0.0007264976, 0.00014848878, 0.0011652615, 0.00027781047, 0.00093699526, 0.000115395516, 0.00027364647, -0.00014512814], "split_indices": [0, 0, 0, 0, 0, 0, 0, 0, 0, 0, 0, 0, 0, 0, 0, 0, 0, 0, 0, 0, 0, 0, 0, 0, 0, 0, 0, 0, 0, 0, 0, 0, 0, 0, 0, 0, 0, 0, 0, 0, 0, 0, 0, 0, 0, 0, 0, 0, 0, 0, 0, 0, 0, 0, 0], "split_type": [0, 0, 0, 0, 0, 0, 0, 0, 0, 0, 0, 0, 0, 0, 0, 0, 0, 0, 0, 0, 0, 0, 0, 0, 0, 0, 0, 0, 0, 0, 0, 0, 0, 0, 0, 0, 0, 0, 0, 0, 0, 0, 0, 0, 0, 0, 0, 0, 0, 0, 0, 0, 0, 0, 0], "sum_hessian": [1559.0, 183.0, 1376.0, 25.0, 158.0, 1289.0, 87.0, 7.0, 18.0, 152.0, 6.0, 1210.0, 79.0, 6.0, 81.0, 12.0, 6.0, 140.0, 12.0, 1186.0, 24.0, 55.0, 24.0, 7.0, 74.0, 6.0, 6.0, 128.0, 12.0, 6.0, 6.0, 1168.0, 18.0, 6.0, 18.0, 43.0, 12.0, 6.0, 18.0, 6.0, 68.0, 121.0, 7.0, 6.0, 6.0, 1149.0, 19.0, 12.0, 31.0, 6.0, 6.0, 6.0, 12.0, 30.0, 38.0], "tree_param": {"num_deleted": "0", "num_feature": "1", "num_nodes": "55", "size_leaf_vector": "1"}}, {"base_weights": [-1.6150376e-05, -0.0005595491, 2.545887e-05, -0.0009842354, -0.00042464913, -0.00014579785, 8.3204955e-05, -0.0004147634, -0.00076472445, -0.00034852698, -0.00037018573, -0.00010367218, -0.00068742974, 0.00011515826, -0.00028012015, -0.00042663628, -0.00038500686, -0.00044033738, 0.00020154886, -0.00012468669, 0.00029216154, 6.55294e-05, 0.0008764159, -0.0015013117, 0.00012658573, -0.00021263532, -2.506205e-05, -0.0002905045, -0.0007057786, -9.301459e-05, -0.00050442904, 8.4158106e-05, -0.00063317345, 0.0014360498, 1.3101101e-05, 0.00048471094, -3.394127e-05, -0.000111651, 7.579667e-05, -0.0004516639, -9.956642e-05, -4.5027144e-05, 7.504785e-05, 1.814621e-05, 0.00052530726, 0.00071125035, 0.0003535936, -0.00083697954, 0.00031353236, -0.00033307396, 5.660767e-05], "categories": [], "categories_nodes": [], "categories_segments": [], "categories_sizes": [], "default_left": [0, 0, 0, 0, 0, 0, 0, 0, 0, 0, 0, 0, 0, 0, 0, 0, 0, 0, 0, 0, 0, 0, 0, 0, 0, 0, 0, 0, 0, 0, 0, 0, 0, 0, 0, 0, 0, 0, 0, 0, 0, 0, 0, 0, 0, 0, 0, 0, 0, 0, 0], "id": 12, "left_children": [1, 3, 5, 7, 9, 11, 13, -1, 15, 17, -1, 19, -1, 21, 23, 25, -1, 27, -1, 29, -1, 31, 33, -1, 35, -1, -1, 37, 39, 41, -1, 43, -1, 45, 47, -1, 49, -1, -1, -1, -1, -1, -1, -1, -1, -1, -1, -1, -1, -1, -1], "loss_changes": [3.5286488e-05, 5.9412523e-06, 1.4351767e-05, 1.215998e-06, 4.8680413e-06, 3.2843825e-05, 1.2628501e-05, 0.0, 2.7839951e-06, 7.790178e-06, 0.0, 8.273289e-06, 0.0, 3.764736e-05, 0.00016971503, 1.199239e-06, 0.0, 2.738083e-06, 0.0, 1.7297689e-05, 0.0, 3.820234e-05, 2.9452745e-05, 0.0, 1.9656409e-05, 0.0, 0.0, 2.2675458e-06, 7.274991e-06, 6.8538116e-06, 0.0, 3.6627585e-05, 0.0, 6.1084866e-06, 7.523449e-05, 0.0, 1.8181116e-05, 0.0, 0.0, 0.0, 0.0, 0.0, 0.0, 0.0, 0.0, 0.0, 0.0, 0.0, 0.0, 0.0, 0.0], "parents": [2147483647, 0, 0, 1, 1, 2, 2, 3, 3, 4, 4, 5, 5, 6, 6, 8, 8, 9, 9, 11, 11, 13, 13, 14, 14, 15, 15, 17, 17, 19, 19, 21, 21, 22, 22, 24, 24, 27, 27, 28, 28, 29, 29, 31, 31, 33, 33, 34, 34, 36, 36], "right_children": [2, 4, 6, 8, 10, 12, 14, -1, 16, 18, -1, 20, -1, 22, 24, 26, -1, 28, -1, 30, -1, 32, 34, -1, 36, -1, -1, 38, 40, 42, -1, 44, -1, 46, 48, -1, 50, -1, -1, -1, -1, -1, -1, -1, -1, -1, -1, -1, -1, -1, -1], "split_conditions": [0.9558902, 0.9317948, 0.9710085, 0.9031284, 0.95510656, 0.97082645, 0.98714215, -0.0004147634, 0.92543447, 0.9538609, -0.00037018573, 0.9706625, -0.00068742974, 0.9856583, 0.98730385, 0.9224292, -0.00038500686, 0.95076907, 0.00020154886, 0.97047865, 0.00029216154, 0.98542887, 0.98657835, -0.0015013117, 0.987484, -0.00021263532, -2.506205e-05, 0.94923985, 0.9514942, 0.9695138, -0.00050442904, 0.98522216, -0.00063317345, 0.9858137, 0.9867116, 0.00048471094, 0.9878338, -0.000111651, 7.579667e-05, -0.0004516639, -9.956642e-05, -4.5027144e-05, 7.504785e-05, 1.814621e-05, 0.00052530726, 0.00071125035, 0.0003535936, -0.00083697954, 0.00031353236, -0.00033307396, 5.660767e-05], "split_indices": [0, 0, 0, 0, 0, 0, 0, 0, 0, 0, 0, 0, 0, 0, 0, 0, 0, 0, 0, 0, 0, 0, 0, 0, 0, 0, 0, 0, 0, 0, 0, 0, 0, 0, 0, 0, 0, 0, 0, 0, 0, 0, 0, 0, 0, 0, 0, 0, 0, 0, 0], "split_type": [0, 0, 0, 0, 0, 0, 0, 0, 0, 0, 0, 0, 0, 0, 0, 0, 0, 0, 0, 0, 0, 0, 0, 0, 0, 0, 0, 0, 0, 0, 0, 0, 0, 0, 0, 0, 0, 0, 0, 0, 0, 0, 0, 0, 0, 0, 0, 0, 0, 0, 0], "sum_hessian": [1559.0, 110.0, 1449.0, 25.0, 85.0, 365.0, 1084.0, 7.0, 18.0, 79.0, 6.0, 359.0, 6.0, 997.0, 87.0, 12.0, 6.0, 73.0, 6.0, 353.0, 6.0, 937.0, 60.0, 6.0, 81.0, 6.0, 6.0, 48.0, 25.0, 347.0, 6.0, 930.0, 7.0, 36.0, 24.0, 7.0, 74.0, 42.0, 6.0, 7.0, 18.0, 298.0, 49.0, 918.0, 12.0, 6.0, 30.0, 6.0, 18.0, 12.0, 62.0], "tree_param": {"num_deleted": "0", "num_feature": "1", "num_nodes": "51", "size_leaf_vector": "1"}}, {"base_weights": [-1.3541564e-05, -0.00040784772, 1.6652592e-05, -0.00020014975, -0.00026917298, -4.801281e-05, 0.000107049746, -0.00019856411, -0.0002749903, -2.8202569e-05, -0.00020923592, 0.0019994336, 6.21166e-05, -0.00027412944, 0.00014972858, -4.3361644e-05, 0.00027554817, 0.00077946275, 0.00036767276, 0.00059011, -5.2554074e-06, 4.5752986e-05, -0.00037957312, -2.9484132e-05, -0.00026756755, -8.693049e-05, 0.0003424234, -0.0005652314, 0.00013408758, -0.00025477412, -8.886768e-05, -1.3023434e-05, 0.00024445515, 0.00021325565, -0.0008771207, -0.00011324088, -0.00094199186, 0.00041561588, 2.8225562e-05], "categories": [], "categories_nodes": [], "categories_segments": [], "categories_sizes": [], "default_left": [0, 0, 0, 0, 0, 0, 0, 0, 0, 0, 0, 0, 0, 0, 0, 0, 0, 0, 0, 0, 0, 0, 0, 0, 0, 0, 0, 0, 0, 0, 0, 0, 0, 0, 0, 0, 0, 0, 0], "id": 13, "left_children": [1, 3, 5, -1, 7, 9, 11, 13, -1, 15, -1, 17, 19, 21, -1, 23, -1, -1, -1, 25, 27, -1, 29, 31, -1, 33, -1, 35, 37, -1, -1, -1, -1, -1, -1, -1, -1, -1, -1], "loss_changes": [1.857975e-05, 3.8120725e-06, 8.481214e-06, 0.0, 3.2010103e-06, 1.08646e-05, 5.1319414e-05, 3.7216996e-06, 0.0, 1.1836383e-05, 0.0, 3.3028373e-06, 2.1061709e-05, 2.8470463e-06, 0.0, 9.511848e-06, 0.0, 0.0, 0.0, 2.5107192e-05, 4.1118903e-05, 0.0, 1.7057396e-06, 9.419304e-06, 0.0, 7.2236115e-05, 0.0, 4.957576e-05, 2.0992826e-05, 0.0, 0.0, 0.0, 0.0, 0.0, 0.0, 0.0, 0.0, 0.0, 0.0], "parents": [2147483647, 0, 0, 1, 1, 2, 2, 4, 4, 5, 5, 6, 6, 7, 7, 9, 9, 11, 11, 12, 12, 13, 13, 15, 15, 19, 19, 20, 20, 22, 22, 23, 23, 25, 25, 27, 27, 28, 28], "right_children": [2, 4, 6, -1, 8, 10, 12, 14, -1, 16, -1, 18, 20, 22, -1, 24, -1, -1, -1, 26, 28, -1, 30, 32, -1, 34, -1, 36, 38, -1, -1, -1, -1, -1, -1, -1, -1, -1, -1], "split_conditions": [0.9558902, 0.93752676, 0.9789781, -0.00020014975, 0.95510656, 0.97875506, 0.97920984, 0.9538609, -0.0002749903, 0.9785762, -0.00020923592, 0.9790722, 0.98011065, 0.9451571, 0.00014972858, 0.9784515, 0.00027554817, 0.00077946275, 0.00036767276, 0.97952044, 0.98157954, 4.5752986e-05, 0.94689286, 0.97804016, -0.00026756755, 0.97945184, 0.0003424234, 0.98147064, 0.98172647, -0.00025477412, -8.886768e-05, -1.3023434e-05, 0.00024445515, 0.00021325565, -0.0008771207, -0.00011324088, -0.00094199186, 0.00041561588, 2.8225562e-05], "split_indices": [0, 0, 0, 0, 0, 0, 0, 0, 0, 0, 0, 0, 0, 0, 0, 0, 0, 0, 0, 0, 0, 0, 0, 0, 0, 0, 0, 0, 0, 0, 0, 0, 0, 0, 0, 0, 0, 0, 0], "split_type": [0, 0, 0, 0, 0, 0, 0, 0, 0, 0, 0, 0, 0, 0, 0, 0, 0, 0, 0, 0, 0, 0, 0, 0, 0, 0, 0, 0, 0, 0, 0, 0, 0, 0, 0, 0, 0, 0, 0], "sum_hessian": [1559.0, 110.0, 1449.0, 37.0, 73.0, 845.0, 604.0, 67.0, 6.0, 821.0, 24.0, 13.0, 591.0, 61.0, 6.0, 809.0, 12.0, 6.0, 7.0, 66.0, 525.0, 12.0, 49.0, 797.0, 12.0, 30.0, 36.0, 104.0, 421.0, 6.0, 43.0, 785.0, 12.0, 24.0, 6.0, 98.0, 6.0, 12.0, 409.0], "tree_param": {"num_deleted": "0", "num_feature": "1", "num_nodes": "39", "size_leaf_vector": "1"}}, {"base_weights": [-9.744061e-06, -0.0001640481, 3.7523743e-05, -8.011412e-05, -0.0016927312, 0.0004646525, 2.7314933e-05, -0.00014439474, 0.001587455, -0.0011599687, -0.00039199681, -0.00036132932, 3.458643e-05, -7.384564e-05, -0.0010348959, 0.00087809906, 6.3402317e-06, 0.0005539554, -0.00077235367, 0.00064287445, 2.2007443e-05, -0.00017667095, 0.00092362013, -0.0007553867, 3.7184993e-05, -4.0803534e-05, -0.0002992694, 0.000772678, 0.00012723685, 0.00056133274, 7.83729e-06], "categories": [], "categories_nodes": [], "categories_segments": [], "categories_sizes": [], "default_left": [0, 0, 0, 0, 0, 0, 0, 0, 0, 0, 0, 0, 0, 0, 0, 0, 0, 0, 0, 0, 0, 0, 0, 0, 0, 0, 0, 0, 0, 0, 0], "id": 14, "left_children": [1, 3, 5, 7, 9, -1, 11, 13, 15, -1, 17, -1, 19, 21, -1, -1, -1, -1, -1, -1, 23, 25, 27, -1, 29, -1, -1, -1, -1, -1, -1], "loss_changes": [1.1384192e-05, 4.6825284e-05, 1.8395058e-05, 3.7532165e-05, 5.2208263e-05, 0.0, 1.0682139e-05, 7.809474e-05, 2.7214119e-05, 0.0, 6.826658e-05, 0.0, 3.130022e-05, 3.4009536e-05, 0.0, 0.0, 0.0, 0.0, 0.0, 0.0, 4.5428922e-05, 9.877377e-06, 2.4487475e-05, 0.0, 2.368396e-05, 0.0, 0.0, 0.0, 0.0, 0.0, 0.0], "parents": [2147483647, 0, 0, 1, 1, 2, 2, 3, 3, 4, 4, 6, 6, 7, 7, 8, 8, 10, 10, 12, 12, 13, 13, 20, 20, 21, 21, 22, 22, 24, 24], "right_children": [2, 4, 6, 8, 10, -1, 12, 14, 16, -1, 18, -1, 20, 22, -1, -1, -1, -1, -1, -1, 24, 26, 28, -1, 30, -1, -1, -1, -1, -1, -1], "split_conditions": [0.9683744, 0.96774405, 0.9685332, 0.967093, 0.96789294, 0.0004646525, 0.96865517, 0.9669988, 0.96740645, -0.0011599687, 0.96802336, -0.00036132932, 0.96884966, 0.96572113, -0.0010348959, 0.00087809906, 6.3402317e-06, 0.0005539554, -0.00077235367, 0.00064287445, 0.96894646, 0.96529573, 0.96605027, -0.0007553867, 0.969187, -4.0803534e-05, -0.0002992694, 0.000772678, 0.00012723685, 0.00056133274, 7.83729e-06], "split_indices": [0, 0, 0, 0, 0, 0, 0, 0, 0, 0, 0, 0, 0, 0, 0, 0, 0, 0, 0, 0, 0, 0, 0, 0, 0, 0, 0, 0, 0, 0, 0], "split_type": [0, 0, 0, 0, 0, 0, 0, 0, 0, 0, 0, 0, 0, 0, 0, 0, 0, 0, 0, 0, 0, 0, 0, 0, 0, 0, 0, 0, 0, 0, 0], "sum_hessian": [1559.0, 365.0, 1194.0, 347.0, 18.0, 7.0, 1187.0, 335.0, 12.0, 6.0, 12.0, 6.0, 1181.0, 329.0, 6.0, 6.0, 6.0, 6.0, 6.0, 6.0, 1175.0, 299.0, 30.0, 6.0, 1169.0, 286.0, 13.0, 6.0, 24.0, 6.0, 1163.0], "tree_param": {"num_deleted": "0", "num_feature": "1", "num_nodes": "31", "size_leaf_vector": "1"}}, {"base_weights": [-7.0570372e-06, 1.470068e-07, -0.00022472501, -6.6242824e-06, 0.0004469429, 3.8531543e-06, -0.00084557344, -7.635489e-06, 0.0007474244, -0.001127784, -6.0201546e-05, 8.975882e-06, -0.0004948604, -0.00016722425, -0.00046111262, -5.3340973e-06, 0.00020886118, -0.00066297466, 3.1467487e-05], "categories": [], "categories_nodes": [], "categories_segments": [], "categories_sizes": [], "default_left": [0, 0, 0, 0, 0, 0, 0, 0, 0, 0, 0, 0, 0, 0, 0, 0, 0, 0, 0], "id": 15, "left_children": [1, 3, -1, 5, -1, 7, 9, 11, -1, 13, -1, 15, 17, -1, -1, -1, -1, -1, -1], "loss_changes": [8.339231e-06, 1.5604273e-05, 0.0, 1.3539913e-05, 0.0, 4.351581e-05, 3.2316484e-06, 1.22741485e-05, 0.0, 2.1777996e-06, 0.0, 2.698701e-05, 5.166219e-05, 0.0, 0.0, 0.0, 0.0, 0.0, 0.0], "parents": [2147483647, 0, 0, 1, 1, 3, 3, 5, 5, 6, 6, 7, 7, 9, 9, 11, 11, 12, 12], "right_children": [2, 4, -1, 6, -1, 8, 10, 12, -1, 14, -1, 16, 18, -1, -1, -1, -1, -1, -1], "split_conditions": [0.9902195, 0.98984027, -0.00022472501, 0.9889685, 0.0004469429, 0.9885505, 0.9896082, 0.98689604, 0.0007474244, 0.98929864, -6.0201546e-05, 0.9856583, 0.98730385, -0.00016722425, -0.00046111262, -5.3340973e-06, 0.00020886118, -0.00066297466, 3.1467487e-05], "split_indices": [0, 0, 0, 0, 0, 0, 0, 0, 0, 0, 0, 0, 0, 0, 0, 0, 0, 0, 0], "split_type": [0, 0, 0, 0, 0, 0, 0, 0, 0, 0, 0, 0, 0, 0, 0, 0, 0, 0, 0], "sum_hessian": [1559.0, 1545.0, 14.0, 1539.0, 6.0, 1521.0, 18.0, 1515.0, 6.0, 12.0, 6.0, 1466.0, 49.0, 6.0, 6.0, 1412.0, 54.0, 12.0, 37.0], "tree_param": {"num_deleted": "0", "num_feature": "1", "num_nodes": "19", "size_leaf_vector": "1"}}, {"base_weights": [-5.0604344e-06, -0.00027259256, 1.1891573e-05, -0.00022138604, -0.0002610224, 2.6226648e-05, -0.0002132065, -0.00029057852, 0.00018326896, 5.8424735e-06, 0.00046723103, -0.000954049, 4.2670385e-05, -0.00021080149, -0.00029765815, 1.5514128e-05, -0.00047503712, 0.0009102475, 9.142584e-06, 0.00033974872, -7.414659e-05, -0.0004273606, 5.1923703e-06, 6.285738e-06, 0.00052130653, 0.00046443223, 0.00071172294, -0.0011348312, 0.0007913803, -0.0002595402, 9.0249945e-05, -0.00024123119, -9.490521e-05, 8.500504e-06, -0.00027087485, 0.00046537607, 1.1874186e-05, 5.247423e-05, -0.00068473734, 0.00055245846, 4.9512204e-05, 0.00021556164, -9.4444025e-05], "categories": [], "categories_nodes": [], "categories_segments": [], "categories_sizes": [], "default_left": [0, 0, 0, 0, 0, 0, 0, 0, 0, 0, 0, 0, 0, 0, 0, 0, 0, 0, 0, 0, 0, 0, 0, 0, 0, 0, 0, 0, 0, 0, 0, 0, 0, 0, 0, 0, 0, 0, 0, 0, 0, 0, 0], "id": 16, "left_children": [1, 3, 5, 7, -1, 9, 11, 13, -1, 15, 17, -1, 19, 21, -1, 23, -1, 25, 27, -1, 29, 31, -1, 33, -1, 35, -1, 37, 39, -1, 41, -1, -1, -1, -1, -1, -1, -1, -1, -1, -1, -1, -1], "loss_changes": [7.0781634e-06, 2.652709e-06, 4.7425306e-06, 5.1876445e-06, 0.0, 1.2411784e-05, 6.6943154e-05, 4.3246396e-06, 0.0, 2.0329862e-05, 1.2371064e-05, 0.0, 1.0523398e-05, 3.6629351e-06, 0.0, 2.0872338e-05, 0.0, 1.9105659e-05, 2.8638724e-05, 0.0, 9.830746e-06, 1.3348667e-06, 0.0, 2.6247379e-05, 0.0, 1.1482045e-05, 0.0, 1.9939513e-05, 1.2193306e-05, 0.0, 1.62595e-05, 0.0, 0.0, 0.0, 0.0, 0.0, 0.0, 0.0, 0.0, 0.0, 0.0, 0.0, 0.0], "parents": [2147483647, 0, 0, 1, 1, 2, 2, 3, 3, 5, 5, 6, 6, 7, 7, 9, 9, 10, 10, 12, 12, 13, 13, 15, 15, 17, 17, 18, 18, 20, 20, 21, 21, 23, 23, 25, 25, 27, 27, 28, 28, 30, 30], "right_children": [2, 4, 6, 8, -1, 10, 12, 14, -1, 16, 18, -1, 20, 22, -1, 24, -1, 26, 28, -1, 30, 32, -1, 34, -1, 36, -1, 38, 40, -1, 42, -1, -1, -1, -1, -1, -1, -1, -1, -1, -1, -1, -1], "split_conditions": [0.95372826, 0.95255184, 0.98714215, 0.9514942, -0.0002610224, 0.9856583, 0.98730385, 0.95076907, 0.00018326896, 0.98542887, 0.98641354, -0.000954049, 0.987484, 0.93752676, -0.00029765815, 0.9853064, -0.00047503712, 0.98626, 0.9867116, 0.00033974872, 0.9878338, 0.9031284, 5.1923703e-06, 0.9848448, 0.00052130653, 0.9858137, 0.00071172294, 0.98657835, 0.9868234, -0.0002595402, 0.9889685, -0.00024123119, -9.490521e-05, 8.500504e-06, -0.00027087485, 0.00046537607, 1.1874186e-05, 5.247423e-05, -0.00068473734, 0.00055245846, 4.9512204e-05, 0.00021556164, -9.4444025e-05], "split_indices": [0, 0, 0, 0, 0, 0, 0, 0, 0, 0, 0, 0, 0, 0, 0, 0, 0, 0, 0, 0, 0, 0, 0, 0, 0, 0, 0, 0, 0, 0, 0, 0, 0, 0, 0, 0, 0, 0, 0, 0, 0, 0, 0], "split_type": [0, 0, 0, 0, 0, 0, 0, 0, 0, 0, 0, 0, 0, 0, 0, 0, 0, 0, 0, 0, 0, 0, 0, 0, 0, 0, 0, 0, 0, 0, 0, 0, 0, 0, 0, 0, 0, 0, 0, 0, 0, 0, 0], "sum_hessian": [1559.0, 92.0, 1467.0, 86.0, 6.0, 1380.0, 87.0, 80.0, 6.0, 1320.0, 60.0, 6.0, 81.0, 73.0, 7.0, 1313.0, 7.0, 30.0, 30.0, 7.0, 74.0, 37.0, 36.0, 1307.0, 6.0, 24.0, 6.0, 12.0, 18.0, 12.0, 62.0, 7.0, 30.0, 1277.0, 30.0, 6.0, 18.0, 6.0, 6.0, 6.0, 12.0, 24.0, 38.0], "tree_param": {"num_deleted": "0", "num_feature": "1", "num_nodes": "43", "size_leaf_vector": "1"}}, {"base_weights": [-3.8918774e-06, -9.8721066e-05, 3.7714195e-05, -7.465431e-05, -0.0005101587, 0.00044821348, 2.5616382e-05, -8.655892e-05, 0.00021753482, 0.00026277304, 0.0003139411, -0.00073328614, 4.0242285e-05, -5.9546754e-05, -0.00030572782, 0.00021169783, 8.577422e-05, 2.0540679e-06, -0.000550966, 0.0003335677, 1.5679821e-05, -9.867731e-05, 0.0003055429, -0.00016271557, 0.00012522479, -0.00012625796, 0.00012740238, 0.00013098175, 0.0007492854, -0.0010762278, 3.7757098e-05, -2.1224816e-05, -0.0005077294, 0.00051208225, 1.1805014e-05, 9.562824e-05, -0.00036065493, 0.00054634555, 0.000101000376, -2.7691402e-05, -0.00082493003, 0.0004953453, 7.683557e-06], "categories": [], "categories_nodes": [], "categories_segments": [], "categories_sizes": [], "default_left": [0, 0, 0, 0, 0, 0, 0, 0, 0, 0, 0, 0, 0, 0, 0, 0, 0, 0, 0, 0, 0, 0, 0, 0, 0, 0, 0, 0, 0, 0, 0, 0, 0, 0, 0, 0, 0, 0, 0, 0, 0, 0, 0], "id": 17, "left_children": [1, 3, 5, 7, -1, 9, 11, 13, -1, 15, -1, 17, 19, 21, -1, -1, 23, 25, -1, 27, 29, 31, 33, -1, -1, -1, -1, 35, 37, 39, 41, -1, -1, -1, -1, -1, -1, -1, -1, -1, -1, -1, -1], "loss_changes": [6.1586566e-06, 1.8223003e-05, 5.3767835e-06, 4.537613e-06, 0.0, 3.164187e-06, 1.1739623e-05, 1.1627363e-05, 0.0, 1.8992315e-06, 0.0, 1.6229304e-05, 7.458938e-06, 6.487495e-06, 0.0, 0.0, 4.1845537e-06, 2.502246e-06, 0.0, 6.6393422e-06, 2.311041e-05, 1.8084955e-05, 1.6346685e-05, 0.0, 0.0, 0.0, 0.0, 1.4151931e-05, 1.0885918e-05, 3.103222e-05, 1.8357476e-05, 0.0, 0.0, 0.0, 0.0, 0.0, 0.0, 0.0, 0.0, 0.0, 0.0, 0.0, 0.0], "parents": [2147483647, 0, 0, 1, 1, 2, 2, 3, 3, 5, 5, 6, 6, 7, 7, 9, 9, 11, 11, 12, 12, 13, 13, 16, 16, 17, 17, 19, 19, 20, 20, 21, 21, 22, 22, 27, 27, 28, 28, 29, 29, 30, 30], "right_children": [2, 4, 6, 8, -1, 10, 12, 14, -1, 16, -1, 18, 20, 22, -1, -1, 24, 26, -1, 28, 30, 32, 34, -1, -1, -1, -1, 36, 38, 40, 42, -1, -1, -1, -1, -1, -1, -1, -1, -1, -1, -1, -1], "split_conditions": [0.9710085, 0.97082645, 0.97180766, 0.9706625, -0.0005101587, 0.97148293, 0.9722891, 0.9703935, 0.00021753482, 0.9711029, 0.0003139411, 0.9721499, 0.97374386, 0.9695138, -0.00030572782, 0.00021169783, 0.9712661, 0.97196597, -0.000550966, 0.9732493, 0.97395337, 0.9694084, 0.96966875, -0.00016271557, 0.00012522479, -0.00012625796, 0.00012740238, 0.9731506, 0.97336346, 0.9739162, 0.97400033, -2.1224816e-05, -0.0005077294, 0.00051208225, 1.1805014e-05, 9.562824e-05, -0.00036065493, 0.00054634555, 0.000101000376, -2.7691402e-05, -0.00082493003, 0.0004953453, 7.683557e-06], "split_indices": [0, 0, 0, 0, 0, 0, 0, 0, 0, 0, 0, 0, 0, 0, 0, 0, 0, 0, 0, 0, 0, 0, 0, 0, 0, 0, 0, 0, 0, 0, 0, 0, 0, 0, 0, 0, 0, 0, 0, 0, 0, 0, 0], "split_type": [0, 0, 0, 0, 0, 0, 0, 0, 0, 0, 0, 0, 0, 0, 0, 0, 0, 0, 0, 0, 0, 0, 0, 0, 0, 0, 0, 0, 0, 0, 0, 0, 0, 0, 0, 0, 0, 0, 0, 0, 0, 0, 0], "sum_hessian": [1559.0, 475.0, 1084.0, 469.0, 6.0, 30.0, 1054.0, 463.0, 6.0, 24.0, 6.0, 19.0, 1035.0, 451.0, 12.0, 6.0, 18.0, 12.0, 7.0, 79.0, 956.0, 408.0, 43.0, 6.0, 12.0, 6.0, 6.0, 54.0, 25.0, 18.0, 938.0, 402.0, 6.0, 6.0, 37.0, 48.0, 6.0, 6.0, 19.0, 12.0, 6.0, 6.0, 932.0], "tree_param": {"num_deleted": "0", "num_feature": "1", "num_nodes": "43", "size_leaf_vector": "1"}}, {"base_weights": [-3.1339434e-06, -3.452548e-05, 8.1600876e-05, -2.0198031e-05, -0.000704578, 0.0004447828, -1.959048e-05, 5.9931813e-06, -0.00058761955, 0.00018898696, 0.00059540913, -0.0015160101, 8.8889596e-05, -8.44777e-06, 0.00066871307, -0.00086100015, 0.0002086586, 0.0007201862, -5.1530344e-05, 0.0005165425, -1.1880741e-05, 6.5017434e-06, -0.0006889957, 0.00036901832, -0.00031006796, 0.00036858884, 0.0004714915, -0.0010649195, 0.00024905123, 0.00035677908, 0.001091283, -0.0006608537, 0.00010119237, -5.52056e-06, 0.00061098114, -0.00085396843, 0.00023227461, 0.00029533735, -0.00024834703, -0.00013890267, -0.00045440963, 0.00015563416, -3.9947976e-05, 0.00016112275, -0.00024824485, 0.0004646889, 0.00014331171, 0.00019310262, -2.262942e-05], "categories": [], "categories_nodes": [], "categories_segments": [], "categories_sizes": [], "default_left": [0, 0, 0, 0, 0, 0, 0, 0, 0, 0, 0, 0, 0, 0, 0, 0, 0, 0, 0, 0, 0, 0, 0, 0, 0, 0, 0, 0, 0, 0, 0, 0, 0, 0, 0, 0, 0, 0, 0, 0, 0, 0, 0, 0, 0, 0, 0, 0, 0], "id": 18, "left_children": [1, 3, 5, 7, -1, 9, 11, 13, 15, 17, -1, -1, 19, 21, -1, -1, 23, 25, 27, 29, 31, 33, -1, -1, 35, 37, -1, 39, 41, 43, 45, -1, 47, -1, -1, -1, -1, -1, -1, -1, -1, -1, -1, -1, -1, -1, -1, -1, -1], "loss_changes": [4.1523485e-06, 3.7715756e-05, 1.5517582e-05, 1.6841552e-05, 0.0, 3.586406e-05, 0.00018119653, 3.481844e-05, 9.146935e-05, 1.0258121e-05, 0.0, 0.0, 1.4011925e-05, 3.689066e-05, 0.0, 0.0, 2.0514888e-05, 6.9049192e-06, 1.7323162e-05, 5.3036492e-06, 6.562606e-05, 5.4234435e-05, 0.0, 0.0, 7.371335e-05, 1.4814788e-05, 0.0, 2.8181312e-06, 4.605196e-06, 1.1120345e-05, 2.9107377e-06, 0.0, 2.4194032e-05, 0.0, 0.0, 0.0, 0.0, 0.0, 0.0, 0.0, 0.0, 0.0, 0.0, 0.0, 0.0, 0.0, 0.0, 0.0, 0.0], "parents": [2147483647, 0, 0, 1, 1, 2, 2, 3, 3, 5, 5, 6, 6, 7, 7, 8, 8, 9, 9, 12, 12, 13, 13, 16, 16, 17, 17, 18, 18, 19, 19, 20, 20, 21, 21, 24, 24, 25, 25, 27, 27, 28, 28, 29, 29, 30, 30, 32, 32], "right_children": [2, 4, 6, 8, -1, 10, 12, 14, 16, 18, -1, -1, 20, 22, -1, -1, 24, 26, 28, 30, 32, 34, -1, -1, 36, 38, -1, 40, 42, 44, 46, -1, 48, -1, -1, -1, -1, -1, -1, -1, -1, -1, -1, -1, -1, -1, -1, -1, -1], "split_conditions": [0.98157954, 0.98147064, 0.9827198, 0.98069566, -0.000704578, 0.98261195, 0.9827694, 0.98062193, 0.98080075, 0.9818191, 0.00059540913, -0.0015160101, 0.98361063, 0.9805985, 0.00066871307, -0.00086100015, 0.9809643, 0.9817589, 0.98194224, 0.98339087, 0.9838853, 0.9804289, -0.0006889957, 0.00036901832, 0.9811046, 0.98172647, 0.0004714915, 0.98191327, 0.98229396, 0.98331636, 0.98346, -0.0006608537, 0.9848448, -5.52056e-06, 0.00061098114, -0.00085396843, 0.00023227461, 0.00029533735, -0.00024834703, -0.00013890267, -0.00045440963, 0.00015563416, -3.9947976e-05, 0.00016112275, -0.00024824485, 0.0004646889, 0.00014331171, 0.00019310262, -2.262942e-05], "split_indices": [0, 0, 0, 0, 0, 0, 0, 0, 0, 0, 0, 0, 0, 0, 0, 0, 0, 0, 0, 0, 0, 0, 0, 0, 0, 0, 0, 0, 0, 0, 0, 0, 0, 0, 0, 0, 0, 0, 0, 0, 0, 0, 0, 0, 0, 0, 0, 0, 0], "split_type": [0, 0, 0, 0, 0, 0, 0, 0, 0, 0, 0, 0, 0, 0, 0, 0, 0, 0, 0, 0, 0, 0, 0, 0, 0, 0, 0, 0, 0, 0, 0, 0, 0, 0, 0, 0, 0, 0, 0, 0, 0, 0, 0, 0, 0, 0, 0, 0, 0], "sum_hessian": [1559.0, 1138.0, 421.0, 1132.0, 6.0, 91.0, 330.0, 1083.0, 49.0, 79.0, 12.0, 6.0, 324.0, 1077.0, 6.0, 12.0, 37.0, 24.0, 55.0, 61.0, 263.0, 1071.0, 6.0, 12.0, 25.0, 18.0, 6.0, 12.0, 43.0, 49.0, 12.0, 12.0, 251.0, 1059.0, 12.0, 7.0, 18.0, 12.0, 6.0, 6.0, 6.0, 25.0, 18.0, 43.0, 6.0, 6.0, 6.0, 61.0, 190.0], "tree_param": {"num_deleted": "0", "num_feature": "1", "num_nodes": "49", "size_leaf_vector": "1"}}, {"base_weights": [-3.5112866e-06, -5.0952913e-05, 3.8925595e-05, -2.904778e-05, -0.00054888765, 0.00089754735, 1.0936744e-05, -5.3591757e-05, 0.00086252316, -0.0007105913, -1.7402172e-05, 0.000171268, 0.0005107871, -0.0005298468, 3.272264e-05, -2.4713325e-05, -0.0008590937, 0.0005605766, 7.633429e-05, 0.0003027371, -0.00039467998, -7.6072556e-06, -0.00064990995, 0.0005101357, 1.737948e-05, -5.1460353e-05, 0.00086452364, -0.00030638746, -8.074137e-06, -0.000908306, -0.00034152085, -0.0007407446, 3.669086e-05, -9.506259e-06, -0.0002163084, 0.00014859311, 0.00044383408, -0.00012955836, -0.00037649786, -1.0552578e-05, -0.00017972334, -2.5049083e-05, -0.000556658, 0.00014181198, 1.5945528e-06], "categories": [], "categories_nodes": [], "categories_segments": [], "categories_sizes": [], "default_left": [0, 0, 0, 0, 0, 0, 0, 0, 0, 0, 0, 0, 0, 0, 0, 0, 0, 0, 0, 0, 0, 0, 0, 0, 0, 0, 0, 0, 0, 0, 0, 0, 0, 0, 0, 0, 0, 0, 0, 0, 0, 0, 0, 0, 0], "id": 19, "left_children": [1, 3, 5, 7, 9, 11, 13, 15, 17, -1, 19, -1, -1, 21, 23, 25, -1, -1, -1, -1, 27, -1, 29, -1, 31, 33, 35, -1, -1, 37, 39, 41, 43, -1, -1, -1, -1, -1, -1, -1, -1, -1, -1, -1, -1], "loss_changes": [3.1426916e-06, 8.0227555e-06, 1.9792416e-05, 1.551729e-05, 2.994107e-05, 5.8655005e-06, 9.43072e-06, 5.584154e-05, 1.1148054e-05, 0.0, 1.0080417e-05, 0.0, 0.0, 1.8612072e-06, 1.9647805e-05, 1.6289265e-05, 0.0, 0.0, 0.0, 0.0, 4.3509976e-06, 0.0, 1.6819577e-06, 0.0, 1.119782e-05, 8.76801e-06, 3.8079716e-06, 0.0, 0.0, 1.60532e-06, 1.0046459e-06, 1.376614e-05, 1.0189303e-05, 0.0, 0.0, 0.0, 0.0, 0.0, 0.0, 0.0, 0.0, 0.0, 0.0, 0.0, 0.0], "parents": [2147483647, 0, 0, 1, 1, 2, 2, 3, 3, 4, 4, 5, 5, 6, 6, 7, 7, 8, 8, 10, 10, 13, 13, 14, 14, 15, 15, 20, 20, 22, 22, 24, 24, 25, 25, 26, 26, 29, 29, 30, 30, 31, 31, 32, 32], "right_children": [2, 4, 6, 8, 10, 12, 14, 16, 18, -1, 20, -1, -1, 22, 24, 26, -1, -1, -1, -1, 28, -1, 30, -1, 32, 34, 36, -1, -1, 38, 40, 42, 44, -1, -1, -1, -1, -1, -1, -1, -1, -1, -1, -1, -1], "split_conditions": [0.9758557, 0.97521245, 0.9761522, 0.9748805, 0.9752888, 0.97610986, 0.9766386, 0.9748305, 0.97502226, -0.0007105913, 0.97537047, 0.000171268, 0.0005107871, 0.9762515, 0.9766735, 0.97452855, -0.0008590937, 0.0005605766, 7.633429e-05, 0.0003027371, 0.9754231, -7.6072556e-06, 0.97642964, 0.0005101357, 0.9769995, 0.97424257, 0.97478217, -0.00030638746, -8.074137e-06, 0.9763324, 0.97652125, 0.9769043, 0.9776239, -9.506259e-06, -0.0002163084, 0.00014859311, 0.00044383408, -0.00012955836, -0.00037649786, -1.0552578e-05, -0.00017972334, -2.5049083e-05, -0.000556658, 0.00014181198, 1.5945528e-06], "split_indices": [0, 0, 0, 0, 0, 0, 0, 0, 0, 0, 0, 0, 0, 0, 0, 0, 0, 0, 0, 0, 0, 0, 0, 0, 0, 0, 0, 0, 0, 0, 0, 0, 0, 0, 0, 0, 0, 0, 0, 0, 0, 0, 0, 0, 0], "split_type": [0, 0, 0, 0, 0, 0, 0, 0, 0, 0, 0, 0, 0, 0, 0, 0, 0, 0, 0, 0, 0, 0, 0, 0, 0, 0, 0, 0, 0, 0, 0, 0, 0, 0, 0, 0, 0, 0, 0, 0, 0, 0, 0, 0, 0], "sum_hessian": [1559.0, 736.0, 823.0, 706.0, 30.0, 25.0, 798.0, 688.0, 18.0, 6.0, 24.0, 19.0, 6.0, 30.0, 768.0, 682.0, 6.0, 6.0, 12.0, 6.0, 18.0, 6.0, 24.0, 6.0, 762.0, 663.0, 19.0, 6.0, 12.0, 12.0, 12.0, 18.0, 744.0, 645.0, 18.0, 13.0, 6.0, 6.0, 6.0, 6.0, 6.0, 12.0, 6.0, 49.0, 695.0], "tree_param": {"num_deleted": "0", "num_feature": "1", "num_nodes": "45", "size_leaf_vector": "1"}}, {"base_weights": [-2.814791e-06, 1.4163621e-06, -0.000438718, -4.0288483e-06, 0.0003597481, -0.00022705794, -4.2758387e-05, 2.4896883e-06, -0.0005259859, -5.24572e-06, 0.00050322077, -0.0007382448, -1.6994989e-05, 5.6575045e-06, -0.00037013672, -9.649056e-05, -0.00031481727, -5.000527e-06, 9.57222e-05, -0.00070529326, 1.3486335e-06], "categories": [], "categories_nodes": [], "categories_segments": [], "categories_sizes": [], "default_left": [0, 0, 0, 0, 0, 0, 0, 0, 0, 0, 0, 0, 0, 0, 0, 0, 0, 0, 0, 0, 0], "id": 20, "left_children": [1, 3, 5, 7, -1, -1, -1, 9, 11, 13, -1, 15, -1, 17, 19, -1, -1, -1, -1, -1, -1], "loss_changes": [2.8778436e-06, 1.0087792e-05, 1.3055828e-06, 5.2409996e-06, 0.0, 0.0, 0.0, 1.9728035e-05, 1.8509727e-06, 6.0334824e-06, 0.0, 1.347622e-06, 0.0, 1.0312361e-05, 3.2662385e-05, 0.0, 0.0, 0.0, 0.0, 0.0, 0.0], "parents": [2147483647, 0, 0, 1, 1, 2, 2, 3, 3, 7, 7, 8, 8, 9, 9, 11, 11, 13, 13, 14, 14], "right_children": [2, 4, 6, 8, -1, -1, -1, 10, 12, 14, -1, 16, -1, 18, 20, -1, -1, -1, -1, -1, -1], "split_conditions": [0.9902195, 0.98984027, 0.990858, 0.9889685, 0.0003597481, -0.00022705794, -4.2758387e-05, 0.9885505, 0.9896082, 0.98714215, 0.00050322077, 0.98929864, -1.6994989e-05, 0.984911, 0.98730385, -9.649056e-05, -0.00031481727, -5.000527e-06, 9.57222e-05, -0.00070529326, 1.3486335e-06], "split_indices": [0, 0, 0, 0, 0, 0, 0, 0, 0, 0, 0, 0, 0, 0, 0, 0, 0, 0, 0, 0, 0], "split_type": [0, 0, 0, 0, 0, 0, 0, 0, 0, 0, 0, 0, 0, 0, 0, 0, 0, 0, 0, 0, 0], "sum_hessian": [1559.0, 1545.0, 14.0, 1539.0, 6.0, 6.0, 8.0, 1521.0, 18.0, 1515.0, 6.0, 12.0, 6.0, 1472.0, 43.0, 6.0, 6.0, 1375.0, 97.0, 6.0, 37.0], "tree_param": {"num_deleted": "0", "num_feature": "1", "num_nodes": "21", "size_leaf_vector": "1"}}, {"base_weights": [-2.2532465e-06, -8.0355225e-05, 4.3750906e-06, 2.993452e-05, -4.512703e-05, -2.0766349e-05, 0.0005651548, -0.0009604914, -1.9677666e-06, 9.096907e-06, -0.00028930994, 0.0005765191, 0.00044094265, 0.00060991285, -3.3245982e-05, -3.6591846e-06, 0.00024272616, -0.0010160821, -3.381316e-05, 0.00014930693, 0.0007670224, -0.0003028237, 0.00044271993, -0.0010899305, 2.363651e-05, 1.1664188e-06, -0.00026293824, 0.00032818274, -6.9442634e-05, 0.00018356816, -0.00030025613, 0.00037433323, 0.0001491432, 0.00029054965, -0.00045926572, -7.174566e-06, -0.0006216315, 0.00026777113, -4.055879e-07], "categories": [], "categories_nodes": [], "categories_segments": [], "categories_sizes": [], "default_left": [0, 0, 0, 0, 0, 0, 0, 0, 0, 0, 0, 0, 0, 0, 0, 0, 0, 0, 0, 0, 0, 0, 0, 0, 0, 0, 0, 0, 0, 0, 0, 0, 0, 0, 0, 0, 0, 0, 0], "id": 21, "left_children": [1, -1, 3, 5, 7, 9, 11, -1, 13, 15, 17, -1, 19, 21, 23, 25, -1, -1, 27, 29, 31, 33, -1, 35, 37, -1, -1, -1, -1, -1, -1, -1, -1, -1, -1, -1, -1, -1, -1], "loss_changes": [2.7475046e-06, 0.0, 1.9283204e-06, 2.7283548e-05, 7.0698465e-05, 7.3726314e-06, 1.3812407e-05, 0.0, 9.838346e-06, 8.452493e-06, 7.2697454e-05, 0.0, 7.5882945e-06, 2.0203533e-05, 2.9418014e-05, 5.3786034e-06, 0.0, 0.0, 1.9423891e-05, 2.4022584e-05, 4.309997e-06, 2.1779078e-05, 0.0, 2.6125772e-05, 1.0097904e-05, 0.0, 0.0, 0.0, 0.0, 0.0, 0.0, 0.0, 0.0, 0.0, 0.0, 0.0, 0.0, 0.0, 0.0], "parents": [2147483647, 0, 0, 2, 2, 3, 3, 4, 4, 5, 5, 6, 6, 8, 8, 9, 9, 10, 10, 12, 12, 13, 13, 14, 14, 15, 15, 18, 18, 19, 19, 20, 20, 21, 21, 23, 23, 24, 24], "right_children": [2, -1, 4, 6, 8, 10, 12, -1, 14, 16, 18, -1, 20, 22, 24, 26, -1, -1, 28, 30, 32, 34, -1, 36, 38, -1, -1, -1, -1, -1, -1, -1, -1, -1, -1, -1, -1, -1, -1], "split_conditions": [0.93752676, -8.0355225e-05, 0.9802119, 0.9789781, 0.98024905, 0.9776239, 0.9790722, -0.0009604914, 0.9805985, 0.9775065, 0.9776623, 0.0005765191, 0.97964716, 0.9804289, 0.98080075, 0.9774538, 0.00024272616, -0.0010160821, 0.9778466, 0.97945184, 0.97976756, 0.9803471, 0.00044271993, 0.98069566, 0.9809643, 1.1664188e-06, -0.00026293824, 0.00032818274, -6.9442634e-05, 0.00018356816, -0.00030025613, 0.00037433323, 0.0001491432, 0.00029054965, -0.00045926572, -7.174566e-06, -0.0006216315, 0.00026777113, -4.055879e-07], "split_indices": [0, 0, 0, 0, 0, 0, 0, 0, 0, 0, 0, 0, 0, 0, 0, 0, 0, 0, 0, 0, 0, 0, 0, 0, 0, 0, 0, 0, 0, 0, 0, 0, 0, 0, 0, 0, 0, 0, 0], "split_type": [0, 0, 0, 0, 0, 0, 0, 0, 0, 0, 0, 0, 0, 0, 0, 0, 0, 0, 0, 0, 0, 0, 0, 0, 0, 0, 0, 0, 0, 0, 0, 0, 0, 0, 0, 0, 0, 0, 0], "sum_hessian": [1559.0, 37.0, 1522.0, 1004.0, 518.0, 918.0, 86.0, 6.0, 512.0, 827.0, 91.0, 6.0, 80.0, 24.0, 488.0, 815.0, 12.0, 6.0, 85.0, 43.0, 37.0, 12.0, 12.0, 24.0, 464.0, 809.0, 6.0, 12.0, 73.0, 31.0, 12.0, 12.0, 25.0, 6.0, 6.0, 12.0, 12.0, 12.0, 452.0], "tree_param": {"num_deleted": "0", "num_feature": "1", "num_nodes": "39", "size_leaf_vector": "1"}}, {"base_weights": [-2.1787025e-06, -0.00014599264, 3.183264e-07, 3.4861553e-06, -9.741664e-05, -5.6933516e-07, 0.00026734217, 4.319153e-06, -0.000390332, -1.4455608e-06, 0.00037392293, -0.0001644043, -1.2519531e-05, 2.0270745e-06, -8.241129e-05], "categories": [], "categories_nodes": [], "categories_segments": [], "categories_sizes": [], "default_left": [0, 0, 0, 0, 0, 0, 0, 0, 0, 0, 0, 0, 0, 0, 0], "id": 22, "left_children": [1, -1, 3, 5, -1, 7, -1, 9, 11, 13, -1, -1, -1, -1, -1], "loss_changes": [1.8873169e-06, 0.0, 1.6002135e-06, 5.540713e-06, 0.0, 2.922588e-06, 0.0, 1.08496515e-05, 1.0215242e-06, 3.3841252e-06, 0.0, 0.0, 0.0, 0.0, 0.0], "parents": [2147483647, 0, 0, 2, 2, 3, 3, 5, 5, 7, 7, 8, 8, 9, 9], "right_children": [2, -1, 4, 6, -1, 8, -1, 10, 12, 14, -1, -1, -1, -1, -1], "split_conditions": [0.9031284, -0.00014599264, 0.9902195, 0.98984027, -9.741664e-05, 0.9889685, 0.00026734217, 0.9885505, 0.9896082, 0.98714215, 0.00037392293, -0.0001644043, -1.2519531e-05, 2.0270745e-06, -8.241129e-05], "split_indices": [0, 0, 0, 0, 0, 0, 0, 0, 0, 0, 0, 0, 0, 0, 0], "split_type": [0, 0, 0, 0, 0, 0, 0, 0, 0, 0, 0, 0, 0, 0, 0], "sum_hessian": [1559.0, 7.0, 1552.0, 1538.0, 14.0, 1532.0, 6.0, 1514.0, 18.0, 1508.0, 6.0, 12.0, 6.0, 1465.0, 43.0], "tree_param": {"num_deleted": "0", "num_feature": "1", "num_nodes": "15", "size_leaf_vector": "1"}}, {"base_weights": [-1.4341795e-06, -7.571512e-05, 1.3617687e-05, 2.5106141e-05, -0.0006049551, 0.00052993046, 4.11046e-06, -7.250493e-05, 0.001817717, -0.00019971868, 1.0910304e-05, -1.3506719e-05, -0.0006077835, 0.00078458706, 0.00022814104, 0.00045151543, 2.6921743e-06, -6.1215054e-05, 0.00073716044, -0.0005054968, 1.2006904e-05, -9.007708e-06, -0.00011687561, 0.00032834263, 6.7047564e-05, 0.00023802482, -2.4651315e-06], "categories": [], "categories_nodes": [], "categories_segments": [], "categories_sizes": [], "default_left": [0, 0, 0, 0, 0, 0, 0, 0, 0, 0, 0, 0, 0, 0, 0, 0, 0, 0, 0, 0, 0, 0, 0, 0, 0, 0, 0], "id": 23, "left_children": [1, 3, 5, 7, -1, -1, 9, 11, 13, -1, 15, 17, -1, -1, -1, -1, 19, 21, 23, -1, 25, -1, -1, -1, -1, -1, -1], "loss_changes": [1.7452153e-06, 5.1512907e-05, 2.162317e-05, 4.4051445e-05, 0.0, 0.0, 5.892069e-06, 2.751726e-05, 8.973158e-06, 0.0, 1.5713125e-05, 8.389573e-06, 0.0, 0.0, 0.0, 0.0, 2.0047892e-05, 2.2414679e-06, 2.3249745e-06, 0.0, 2.0045009e-05, 0.0, 0.0, 0.0, 0.0, 0.0, 0.0], "parents": [2147483647, 0, 0, 1, 1, 2, 2, 3, 3, 6, 6, 7, 7, 8, 8, 10, 10, 11, 11, 16, 16, 17, 17, 18, 18, 20, 20], "right_children": [2, 4, 6, 8, -1, -1, 10, 12, 14, -1, 16, 18, -1, -1, -1, -1, 20, 22, 24, -1, 26, -1, -1, -1, -1, -1, -1], "split_conditions": [0.96446645, 0.96401906, 0.9646234, 0.96356374, -0.0006049551, 0.00052993046, 0.9649467, 0.96339023, 0.9638138, -0.00019971868, 0.96529573, 0.96287626, -0.0006077835, 0.00078458706, 0.00022814104, 0.00045151543, 0.9654775, 0.96194893, 0.963082, -0.0005054968, 0.9666876, -9.007708e-06, -0.00011687561, 0.00032834263, 6.7047564e-05, 0.00023802482, -2.4651315e-06], "split_indices": [0, 0, 0, 0, 0, 0, 0, 0, 0, 0, 0, 0, 0, 0, 0, 0, 0, 0, 0, 0, 0, 0, 0, 0, 0, 0, 0], "split_type": [0, 0, 0, 0, 0, 0, 0, 0, 0, 0, 0, 0, 0, 0, 0, 0, 0, 0, 0, 0, 0, 0, 0, 0, 0, 0, 0], "sum_hessian": [1559.0, 262.0, 1297.0, 250.0, 12.0, 6.0, 1291.0, 238.0, 12.0, 12.0, 1279.0, 232.0, 6.0, 6.0, 6.0, 6.0, 1273.0, 219.0, 13.0, 6.0, 1267.0, 201.0, 18.0, 7.0, 6.0, 31.0, 1236.0], "tree_param": {"num_deleted": "0", "num_feature": "1", "num_nodes": "27", "size_leaf_vector": "1"}}, {"base_weights": [-6.4881186e-07, -1.5189076e-05, 7.7079225e-05, 3.240434e-06, -0.0012724462, 0.0003147662, -4.2706206e-06, -1.6312137e-05, 0.00056041504, -0.0006208573, -0.00022361096, -0.00022290052, 6.644178e-05, 5.900327e-06, -0.0011085129, 0.00048306075, 0.00035228542, 0.0014121532, -6.7772664e-05, -9.400455e-06, 0.0004317036, -0.0011250973, -7.687117e-05, 0.00010758409, 0.00081458915, 0.00057334645, 0.0003104499, -0.0012394004, 8.635005e-05, 3.7211835e-06, -4.1312993e-05, 0.0002040778, -0.00014359309, 0.00010611981, -0.00018332005, 0.00034628852, 0.00010755403, 0.000107396176, -2.1275526e-05], "categories": [], "categories_nodes": [], "categories_segments": [], "categories_sizes": [], "default_left": [0, 0, 0, 0, 0, 0, 0, 0, 0, 0, 0, 0, 0, 0, 0, 0, 0, 0, 0, 0, 0, 0, 0, 0, 0, 0, 0, 0, 0, 0, 0, 0, 0, 0, 0, 0, 0, 0, 0], "id": 24, "left_children": [1, 3, 5, 7, 9, -1, 11, 13, 15, -1, -1, -1, 17, 19, 21, -1, 23, 25, 27, 29, -1, -1, 31, 33, 35, -1, -1, -1, 37, -1, -1, -1, -1, -1, -1, -1, -1, -1, -1], "loss_changes": [1.7642612e-06, 3.0473508e-05, 1.9459034e-05, 1.41389155e-05, 6.439739e-06, 0.0, 1.1959505e-05, 3.0429172e-05, 9.046391e-06, 0.0, 0.0, 0.0, 3.7844013e-05, 2.6984635e-05, 6.784678e-05, 0.0, 4.2111637e-06, 1.5996593e-06, 0.00011997759, 3.4093212e-06, 0.0, 0.0, 6.1052915e-06, 4.8154225e-06, 1.6002805e-06, 0.0, 0.0, 0.0, 7.928581e-06, 0.0, 0.0, 0.0, 0.0, 0.0, 0.0, 0.0, 0.0, 0.0, 0.0], "parents": [2147483647, 0, 0, 1, 1, 2, 2, 3, 3, 4, 4, 6, 6, 7, 7, 8, 8, 12, 12, 13, 13, 14, 14, 16, 16, 17, 17, 18, 18, 19, 19, 22, 22, 23, 23, 24, 24, 28, 28], "right_children": [2, 4, 6, 8, 10, -1, 12, 14, 16, -1, -1, -1, 18, 20, 22, -1, 24, 26, 28, 30, -1, -1, 32, 34, 36, -1, -1, -1, 38, -1, -1, -1, -1, -1, -1, -1, -1, -1, -1], "split_conditions": [0.9839973, 0.98361063, 0.98432523, 0.9830109, 0.98371863, 0.0003147662, 0.9845629, 0.9827198, 0.98307294, -0.0006208573, -0.00022361096, -0.00022290052, 0.9848448, 0.98261195, 0.9827694, 0.00048306075, 0.98339087, 0.9846223, 0.984911, 0.9802119, 0.0004317036, -0.0011250973, 0.9828607, 0.98331636, 0.98346, 0.00057334645, 0.0003104499, -0.0012394004, 0.98641354, 3.7211835e-06, -4.1312993e-05, 0.0002040778, -0.00014359309, 0.00010611981, -0.00018332005, 0.00034628852, 0.00010755403, 0.000107396176, -2.1275526e-05], "split_indices": [0, 0, 0, 0, 0, 0, 0, 0, 0, 0, 0, 0, 0, 0, 0, 0, 0, 0, 0, 0, 0, 0, 0, 0, 0, 0, 0, 0, 0, 0, 0, 0, 0, 0, 0, 0, 0, 0, 0], "split_type": [0, 0, 0, 0, 0, 0, 0, 0, 0, 0, 0, 0, 0, 0, 0, 0, 0, 0, 0, 0, 0, 0, 0, 0, 0, 0, 0, 0, 0, 0, 0, 0, 0, 0, 0, 0, 0, 0, 0], "sum_hessian": [1559.0, 1314.0, 245.0, 1296.0, 18.0, 18.0, 227.0, 1253.0, 43.0, 6.0, 12.0, 19.0, 208.0, 1229.0, 24.0, 6.0, 37.0, 18.0, 190.0, 1217.0, 12.0, 6.0, 18.0, 25.0, 12.0, 6.0, 12.0, 6.0, 184.0, 1041.0, 176.0, 6.0, 12.0, 19.0, 6.0, 6.0, 6.0, 67.0, 117.0], "tree_param": {"num_deleted": "0", "num_feature": "1", "num_nodes": "39", "size_leaf_vector": "1"}}, {"base_weights": [-9.709444e-07, -5.176889e-05, 2.13155e-05, -3.381397e-05, -0.00037497538, 0.00034454753, 1.1797482e-05, -9.765801e-06, -0.00030694666, 0.00020583867, 0.00023721457, -0.000526002, 2.2168326e-05, -4.854678e-05, 0.0012468925, -0.00035467744, -0.0001058802, 0.00016125696, 7.28055e-05, 1.5891515e-05, -0.00040224867, 0.00042496572, 9.734043e-06, -2.8909977e-05, -0.00036173806, 0.00060484326, 8.9854e-05, -0.00027892223, 0.00016559192, -0.00011687279, 9.485392e-05, -8.9795256e-05, 9.864909e-05, 4.6585737e-07, 0.0003033331, -0.00054787315, 2.2576154e-05, -1.5379355e-05, 0.00038440913, 4.587855e-05, -0.00021676102, 0.00026276984, 3.3976098e-06], "categories": [], "categories_nodes": [], "categories_segments": [], "categories_sizes": [], "default_left": [0, 0, 0, 0, 0, 0, 0, 0, 0, 0, 0, 0, 0, 0, 0, 0, 0, 0, 0, 0, 0, 0, 0, 0, 0, 0, 0, 0, 0, 0, 0, 0, 0, 0, 0, 0, 0, 0, 0, 0, 0, 0, 0], "id": 25, "left_children": [1, 3, 5, 7, -1, 9, 11, 13, 15, 17, -1, 19, 21, 23, 25, -1, 27, -1, 29, 31, -1, 33, 35, 37, -1, -1, -1, 39, -1, -1, -1, -1, -1, -1, -1, -1, 41, -1, -1, -1, -1, -1, -1], "loss_changes": [1.7671882e-06, 1.0197766e-05, 3.3339684e-06, 3.0841227e-06, 0.0, 1.7557493e-06, 5.8958535e-06, 2.1162545e-05, 6.5626627e-06, 1.0639916e-06, 0.0, 8.852296e-06, 5.1846655e-06, 9.5322075e-06, 8.870185e-06, 0.0, 3.796718e-06, 0.0, 2.2612787e-06, 1.3807593e-06, 0.0, 7.692045e-06, 2.3760525e-05, 1.22212705e-05, 0.0, 0.0, 0.0, 5.0914523e-06, 0.0, 0.0, 0.0, 0.0, 0.0, 0.0, 0.0, 0.0, 9.590639e-06, 0.0, 0.0, 0.0, 0.0, 0.0, 0.0], "parents": [2147483647, 0, 0, 1, 1, 2, 2, 3, 3, 5, 5, 6, 6, 7, 7, 8, 8, 9, 9, 11, 11, 12, 12, 13, 13, 14, 14, 16, 16, 18, 18, 19, 19, 21, 21, 22, 22, 23, 23, 27, 27, 36, 36], "right_children": [2, 4, 6, 8, -1, 10, 12, 14, 16, 18, -1, 20, 22, 24, 26, -1, 28, -1, 30, 32, -1, 34, 36, 38, -1, -1, -1, 40, -1, -1, -1, -1, -1, -1, -1, -1, 42, -1, -1, -1, -1, -1, -1], "split_conditions": [0.9710085, 0.97082645, 0.97180766, 0.97016305, -0.00037497538, 0.97148293, 0.9722891, 0.96983314, 0.97021866, 0.9711029, 0.00023721457, 0.9721499, 0.9727639, 0.96966875, 0.969973, -0.00035467744, 0.9706625, 0.00016125696, 0.9712661, 0.97196597, -0.00040224867, 0.97260845, 0.97290903, 0.9695138, -0.00036173806, 0.00060484326, 8.9854e-05, 0.9703935, 0.00016559192, -0.00011687279, 9.485392e-05, -8.9795256e-05, 9.864909e-05, 4.6585737e-07, 0.0003033331, -0.00054787315, 0.9731506, -1.5379355e-05, 0.00038440913, 4.587855e-05, -0.00021676102, 0.00026276984, 3.3976098e-06], "split_indices": [0, 0, 0, 0, 0, 0, 0, 0, 0, 0, 0, 0, 0, 0, 0, 0, 0, 0, 0, 0, 0, 0, 0, 0, 0, 0, 0, 0, 0, 0, 0, 0, 0, 0, 0, 0, 0, 0, 0, 0, 0, 0, 0], "split_type": [0, 0, 0, 0, 0, 0, 0, 0, 0, 0, 0, 0, 0, 0, 0, 0, 0, 0, 0, 0, 0, 0, 0, 0, 0, 0, 0, 0, 0, 0, 0, 0, 0, 0, 0, 0, 0, 0, 0, 0, 0, 0, 0], "sum_hessian": [1559.0, 475.0, 1084.0, 469.0, 6.0, 30.0, 1054.0, 432.0, 37.0, 24.0, 6.0, 19.0, 1035.0, 420.0, 12.0, 6.0, 31.0, 6.0, 18.0, 12.0, 7.0, 30.0, 1005.0, 414.0, 6.0, 6.0, 6.0, 25.0, 6.0, 6.0, 12.0, 6.0, 6.0, 18.0, 12.0, 6.0, 999.0, 408.0, 6.0, 13.0, 12.0, 12.0, 987.0], "tree_param": {"num_deleted": "0", "num_feature": "1", "num_nodes": "43", "size_leaf_vector": "1"}}, {"base_weights": [-6.9722154e-07, -2.4646646e-05, 3.714798e-05, -1.3324772e-05, -0.00013372207, 0.00033821893, 1.130233e-05, -2.3574285e-05, 0.00021391512, 0.00027297414, -2.2049979e-05, -4.122023e-06, -0.0003236213, -0.00018220948, 0.0006469665, -0.0011188941, 7.926372e-06, -1.9941288e-05, 0.0004221105, -0.00075652095, -9.412765e-06, 0.00031408548, -0.0005785985, 0.000520362, 0.000334566, 2.828166e-05, -0.00070365844, 0.00047467233, -1.5952104e-05, -3.9712554e-06, -0.00013284225, 0.00035577075, 5.740929e-05, 0.00023545258, -8.426513e-05, -0.00011610664, 0.00029730983, 0.00024728462, 1.0843003e-05, -5.6877965e-05, 0.00033072737, -0.0004992639, 2.3906277e-06], "categories": [], "categories_nodes": [], "categories_segments": [], "categories_sizes": [], "default_left": [0, 0, 0, 0, 0, 0, 0, 0, 0, 0, 0, 0, 0, 0, 0, 0, 0, 0, 0, 0, 0, 0, 0, 0, 0, 0, 0, 0, 0, 0, 0, 0, 0, 0, 0, 0, 0, 0, 0, 0, 0, 0, 0], "id": 26, "left_children": [1, 3, 5, 7, -1, -1, 9, 11, -1, 13, 15, 17, 19, 21, 23, 25, 27, 29, 31, -1, 33, 35, -1, 37, -1, -1, -1, 39, 41, -1, -1, -1, -1, -1, -1, -1, -1, -1, -1, -1, -1, -1, -1], "loss_changes": [1.4148541e-06, 4.551856e-06, 1.7035056e-05, 6.9555413e-06, 0.0, 0.0, 5.172616e-06, 5.3683316e-06, 0.0, 1.1523643e-05, 1.7303426e-05, 5.8408395e-06, 3.8653587e-05, 2.747518e-05, 1.6131526e-06, 2.1054668e-05, 5.7250504e-06, 2.361194e-06, 5.236566e-06, 0.0, 1.1001303e-05, 1.2248873e-05, 0.0, 4.532283e-06, 0.0, 0.0, 0.0, 1.0633868e-05, 1.9293466e-05, 0.0, 0.0, 0.0, 0.0, 0.0, 0.0, 0.0, 0.0, 0.0, 0.0, 0.0, 0.0, 0.0, 0.0], "parents": [2147483647, 0, 0, 1, 1, 2, 2, 3, 3, 6, 6, 7, 7, 9, 9, 10, 10, 11, 11, 12, 12, 13, 13, 14, 14, 15, 15, 16, 16, 17, 17, 18, 18, 20, 20, 21, 21, 23, 23, 27, 27, 28, 28], "right_children": [2, 4, 6, 8, -1, -1, 10, 12, -1, 14, 16, 18, 20, 22, 24, 26, 28, 30, 32, -1, 34, 36, -1, 38, -1, -1, -1, 40, 42, -1, -1, -1, -1, -1, -1, -1, -1, -1, -1, -1, -1, -1, -1], "split_conditions": [0.9789781, 0.97875506, 0.97920984, 0.9785762, -0.00013372207, 0.00033821893, 0.98011065, 0.9776239, 0.00021391512, 0.97952044, 0.98024905, 0.97722536, 0.9776623, 0.97945184, 0.9799884, 0.9802119, 0.9805985, 0.9770736, 0.97738737, -0.00075652095, 0.9778466, 0.9793367, -0.0005785985, 0.97976756, 0.000334566, 2.828166e-05, -0.00070365844, 0.9804289, 0.98062193, -3.9712554e-06, -0.00013284225, 0.00035577075, 5.740929e-05, 0.00023545258, -8.426513e-05, -0.00011610664, 0.00029730983, 0.00024728462, 1.0843003e-05, -5.6877965e-05, 0.00033072737, -0.0004992639, 2.3906277e-06], "split_indices": [0, 0, 0, 0, 0, 0, 0, 0, 0, 0, 0, 0, 0, 0, 0, 0, 0, 0, 0, 0, 0, 0, 0, 0, 0, 0, 0, 0, 0, 0, 0, 0, 0, 0, 0, 0, 0, 0, 0, 0, 0, 0, 0], "split_type": [0, 0, 0, 0, 0, 0, 0, 0, 0, 0, 0, 0, 0, 0, 0, 0, 0, 0, 0, 0, 0, 0, 0, 0, 0, 0, 0, 0, 0, 0, 0, 0, 0, 0, 0, 0, 0, 0, 0, 0, 0, 0, 0], "sum_hessian": [1559.0, 955.0, 604.0, 931.0, 24.0, 13.0, 591.0, 919.0, 12.0, 66.0, 525.0, 864.0, 55.0, 30.0, 36.0, 13.0, 512.0, 834.0, 30.0, 6.0, 49.0, 24.0, 6.0, 30.0, 6.0, 7.0, 6.0, 24.0, 488.0, 822.0, 12.0, 6.0, 24.0, 12.0, 37.0, 12.0, 12.0, 18.0, 12.0, 12.0, 12.0, 6.0, 482.0], "tree_param": {"num_deleted": "0", "num_feature": "1", "num_nodes": "43", "size_leaf_vector": "1"}}, {"base_weights": [-8.678589e-07, -1.7255257e-05, 4.336464e-05, -1.0177745e-06, -0.00042707784, 0.000295893, -2.6955526e-05, -1.697305e-05, 0.0013675323, 0.00017206222, 0.0003105503, -0.0008372733, 3.265876e-05, -2.1736867e-06, -0.00061936904, 0.00076696364, -5.0527715e-06, 0.00056304457, -5.5560045e-06, 0.00027107424, -2.345646e-05, -1.024656e-05, 0.00020357968, 0.00029815498, 0.00036047868, -0.00075438846, 0.00021581622, -5.610993e-05, 0.00040619753, -0.0012045136, 3.7564172e-05, 2.1632197e-06, -0.00043953842, 0.00022456005, -0.00017425674, -9.296793e-05, -0.00032733424, 0.00026581204, 2.600237e-05, 0.00015011175, -0.00010543145, 0.00035736477, 7.526984e-05, -0.00046269895, -0.00020838722, 0.000100545636, -1.7769518e-05], "categories": [], "categories_nodes": [], "categories_segments": [], "categories_sizes": [], "default_left": [0, 0, 0, 0, 0, 0, 0, 0, 0, 0, 0, 0, 0, 0, 0, 0, 0, 0, 0, 0, 0, 0, 0, 0, 0, 0, 0, 0, 0, 0, 0, 0, 0, 0, 0, 0, 0, 0, 0, 0, 0, 0, 0, 0, 0, 0, 0], "id": 27, "left_children": [1, 3, 5, 7, -1, 9, 11, 13, 15, 17, -1, -1, 19, 21, -1, -1, -1, 23, 25, 27, 29, 31, -1, 33, -1, 35, 37, 39, 41, 43, 45, -1, -1, -1, -1, -1, -1, -1, -1, -1, -1, -1, -1, -1, -1, -1, -1], "loss_changes": [1.1315229e-06, 2.6008049e-05, 7.5017833e-06, 2.4631927e-05, 0.0, 8.244023e-06, 5.4630425e-05, 3.3783395e-05, 2.1441578e-05, 5.5587752e-06, 0.0, 0.0, 4.3544483e-06, 6.09629e-06, 0.0, 0.0, 0.0, 3.8703765e-06, 9.445969e-06, 2.7638239e-06, 1.9071424e-05, 2.784709e-05, 0.0, 7.956653e-06, 0.0, 1.6076201e-06, 3.7315706e-06, 3.2984042e-06, 5.0652457e-06, 1.1678985e-06, 7.2787852e-06, 0.0, 0.0, 0.0, 0.0, 0.0, 0.0, 0.0, 0.0, 0.0, 0.0, 0.0, 0.0, 0.0, 0.0, 0.0, 0.0], "parents": [2147483647, 0, 0, 1, 1, 2, 2, 3, 3, 5, 5, 6, 6, 7, 7, 8, 8, 9, 9, 12, 12, 13, 13, 17, 17, 18, 18, 19, 19, 20, 20, 21, 21, 23, 23, 25, 25, 26, 26, 27, 27, 28, 28, 29, 29, 30, 30], "right_children": [2, 4, 6, 8, -1, 10, 12, 14, 16, 18, -1, -1, 20, 22, -1, -1, -1, 24, 26, 28, 30, 32, -1, 34, -1, 36, 38, 40, 42, 44, 46, -1, -1, -1, -1, -1, -1, -1, -1, -1, -1, -1, -1, -1, -1, -1, -1], "split_conditions": [0.98157954, 0.98142827, 0.9827198, 0.9811046, -0.00042707784, 0.98261195, 0.9827694, 0.9809643, 0.98134655, 0.9818191, 0.0003105503, -0.0008372733, 0.98361063, 0.98080075, -0.00061936904, 0.00076696364, -5.0527715e-06, 0.9817589, 0.98194224, 0.9830109, 0.9838853, 0.98069566, 0.00020357968, 0.98172647, 0.00036047868, 0.98191327, 0.9819832, 0.9828607, 0.98307294, 0.98371863, 0.9848448, 2.1632197e-06, -0.00043953842, 0.00022456005, -0.00017425674, -9.296793e-05, -0.00032733424, 0.00026581204, 2.600237e-05, 0.00015011175, -0.00010543145, 0.00035736477, 7.526984e-05, -0.00046269895, -0.00020838722, 0.000100545636, -1.7769518e-05], "split_indices": [0, 0, 0, 0, 0, 0, 0, 0, 0, 0, 0, 0, 0, 0, 0, 0, 0, 0, 0, 0, 0, 0, 0, 0, 0, 0, 0, 0, 0, 0, 0, 0, 0, 0, 0, 0, 0, 0, 0, 0, 0, 0, 0, 0, 0, 0, 0], "split_type": [0, 0, 0, 0, 0, 0, 0, 0, 0, 0, 0, 0, 0, 0, 0, 0, 0, 0, 0, 0, 0, 0, 0, 0, 0, 0, 0, 0, 0, 0, 0, 0, 0, 0, 0, 0, 0, 0, 0, 0, 0, 0, 0, 0, 0, 0, 0], "sum_hessian": [1559.0, 1138.0, 421.0, 1126.0, 12.0, 91.0, 330.0, 1114.0, 12.0, 79.0, 12.0, 6.0, 324.0, 1107.0, 7.0, 6.0, 6.0, 24.0, 55.0,